<?xml version="1.0"?>
<opencv_storage>
<my_nn type_id="opencv-ml-ann-mlp">
  <layer_sizes type_id="opencv-matrix">
    <rows>1</rows>
    <cols>3</cols>
    <dt>i</dt>
    <data>
      200 30 24</data></layer_sizes>
  <activation_function>SIGMOID_SYM</activation_function>
  <f_param1>1.</f_param1>
  <f_param2>1.</f_param2>
  <min_val>-9.4999999999999996e-001</min_val>
  <max_val>9.4999999999999996e-001</max_val>
  <min_val1>-9.7999999999999998e-001</min_val1>
  <max_val1>9.7999999999999998e-001</max_val1>
  <training_params>
    <train_method>BACKPROP</train_method>
    <dw_scale>1.0000000000000001e-001</dw_scale>
    <moment_scale>1.0000000000000001e-001</moment_scale>
    <term_criteria><epsilon>1.0000000474974513e-003</epsilon>
      <iterations>1000</iterations></term_criteria></training_params>
  <input_scale>
    2.2558614433613031e+000 -6.0617626514862011e-001
    2.0019904130567410e+000 -1.0456203507048907e+000
    2.0239469839329289e+000 -1.1671841502435296e+000
    2.0466407551935073e+000 -1.2405405313688254e+000
    2.0544144012233416e+000 -1.2620574358435415e+000
    2.0606872544776138e+000 -1.2785531963364174e+000
    2.0552285942948645e+000 -1.2642387753862889e+000
    2.0371817152210530e+000 -1.2123105912665162e+000
    2.0285839632816609e+000 -1.1839629102670473e+000
    2.0197398548062049e+000 -1.1507147720838622e+000
    2.0185831177474016e+000 -1.1459277576414697e+000
    2.0274537947641371e+000 -1.1799864007972871e+000
    2.0312157733849636e+000 -1.1929758080085104e+000
    2.0419403762531787e+000 -1.2268345246281880e+000
    2.0673503981056136e+000 -1.2953704743958283e+000
    2.1111864331753960e+000 -1.3936420871759054e+000
    2.1514053427662958e+000 -1.4721068050912118e+000
    2.1087383083131774e+000 -1.3885761457604155e+000
    2.0415901128246667e+000 -1.2257890738759145e+000
    2.0865800686868012e+000 -7.4587770144468890e-001
    2.0161659086585444e+000 -1.1354848491708858e+000
    2.2580403484416336e+000 -1.6531256538693349e+000
    2.5195289333771114e+000 -2.0259279685150924e+000
    2.4630163557955775e+000 -1.9502657115829196e+000
    2.4058785068930146e+000 -1.8715668384910076e+000
    2.3522515419335290e+000 -1.7952152872179818e+000
    2.3564757292391771e+000 -1.8013305267681072e+000
    2.3664989343618741e+000 -1.8157676895144688e+000
    2.3949304817620525e+000 -1.8561935635742699e+000
    2.4319198324177718e+000 -1.9077391568823256e+000
    2.4774897719951947e+000 -1.9698323585924982e+000
    2.5235221838340358e+000 -2.0312031320185615e+000
    2.5894351384128056e+000 -2.1170882788086702e+000
    2.7033495930058487e+000 -2.2610838109190023e+000
    3.0179068115659984e+000 -2.6389712732630284e+000
    3.7263635576178284e+000 -3.4352652183519776e+000
    4.0554792930479024e+000 -3.7917487377944807e+000
    3.8194547109874337e+000 -3.5367057119327399e+000
    2.7170860024207526e+000 -2.2781293680828396e+000
    2.1039422759074311e+000 -1.3785339574657278e+000
    2.0027035201710603e+000 -1.0533647144948808e+000
    2.3664989343618741e+000 -1.8157676895144688e+000
    2.4905011941259363e+000 -1.9873079058240088e+000
    2.3264558958675186e+000 -1.7574495049764036e+000
    2.2668974786427767e+000 -1.6670272665029500e+000
    2.2348243711882327e+000 -1.6160202405974622e+000
    2.2759858694242481e+000 -1.6811576606053955e+000
    2.3384723011607518e+000 -1.7751348020263213e+000
    2.4187182907452880e+000 -1.8894690942018406e+000
    2.4594623491486329e+000 -1.9454397477519247e+000
    2.3903182745426648e+000 -1.8496859613229948e+000
    2.2794549959792092e+000 -1.6865170092950468e+000
    2.2348243711882327e+000 -1.6160202405974622e+000
    2.2317834476281853e+000 -1.6110829386763790e+000
    2.2569491455039947e+000 -1.6514036896959701e+000
    2.3607425633465469e+000 -1.8074887846972334e+000
    2.5694881960629390e+000 -2.0913216810491813e+000
    2.7904159835264979e+000 -2.3681444440971298e+000
    2.6171460756594196e+000 -2.1525892671374613e+000
    2.0221630406407773e+000 -1.1603659492920289e+000
    2.0011533842398839e+000 -9.6661028498458190e-001
    2.1027639249949943e+000 -1.3760418323075627e+000
    2.0729690593766978e+000 -1.3090651237945281e+000
    2.0036245683482461e+000 -9.4158062537101628e-001
    2.0641917023805623e+000 -7.7671017022090694e-001
    2.0803621561222587e+000 -7.5386538663571423e-001
    2.0619883304282278e+000 -7.8009783462008619e-001
    2.0143176730165502e+000 -8.8728839829808781e-001
    2.0219141072907378e+000 -1.1593961465937073e+000
    2.0650853432087986e+000 -1.2897281468629183e+000
    2.0183561349885415e+000 -1.1449733984577124e+000
    2.0176838900911114e+000 -8.7556752858350484e-001
    2.1033520745955978e+000 -7.2606509241663986e-001
    2.1637303703478645e+000 -6.6903074027933973e-001
    2.1783814092523386e+000 -6.5752371371297580e-001
    2.1661134349761424e+000 -6.6710978181473835e-001
    2.0668938367560483e+000 -7.7265479214520583e-001
    2.0022938269155062e+000 -1.0490545571692282e+000
    2.0073472170901301e+000 -1.0894682033041321e+000
    2.0172429655139670e+000 -8.7702628725617460e-001
    2.0101171953143124e+000 -1.1057699908784253e+000
    2.0489031444798949e+000 -1.2469398278061692e+000
    2.0035263523479365e+000 -9.4235390805731167e-001
    2.2680207458920907e+000 -5.9923983715594709e-001
    2.2748369473698800e+000 -5.9545834205182957e-001
    2.1469467111503180e+000 -6.8315932158484549e-001
    2.0903346291794827e+000 -7.4123522433481037e-001
    2.0204514085963705e+000 -8.6685215853480269e-001
    2.0437158200492829e+000 -1.2320806211667252e+000
    2.0753872758114817e+000 -1.3148363559231024e+000
    2.0020642400133011e+000 -1.0464777499946825e+000
    2.1418546280720649e+000 -6.8767111780636847e-001
    2.5502199298379966e+000 -4.8396811756434782e-001
    2.6054403757514355e+000 -4.6780708587111663e-001
    2.4923871136104396e+000 -5.0255494765233000e-001
    2.4369663787002551e+000 -5.2227827502614876e-001
    2.4042983322251605e+000 -5.3494408700633433e-001
    2.0855247037684661e+000 -7.4720639693299640e-001
    2.0006227371069465e+000 -9.7535472500265041e-001
    2.0055028661584418e+000 -9.2851911840137258e-001
    2.0058753798207380e+000 -1.0796449897112848e+000
    2.0544144012233416e+000 -1.2620574358435415e+000
    2.0004352355613371e+000 -1.0210810527527807e+000
    2.1717646524410679e+000 -6.6263248700246891e-001
    2.1851707130495632e+000 -6.5242315767941961e-001
    2.1168188528234388e+000 -7.1166670634800278e-001
    2.0860514267510393e+000 -7.4654192163891997e-001
    2.0104528650110520e+000 -9.0285367925649707e-001
    2.0691944934920183e+000 -1.2999111419238203e+000
    2.1087383083131774e+000 -1.3885761457604155e+000
    2.0188115534533102e+000 -1.1468831279127396e+000
    2.0633050981607202e+000 -7.7806433558453336e-001
    2.3072034451489953e+000 -5.7845223389625111e-001
    2.3398296961156597e+000 -5.6270750974069850e-001
    2.2646617705884791e+000 -6.0113107939137955e-001
    2.2420344600553483e+000 -6.1438163118081124e-001
    2.2199073963082978e+000 -6.2829280909829943e-001
    2.0419403762531787e+000 -8.1510585162499083e-001
    2.0002049486744888e+000 -1.0144188696754053e+000
    2.0018468094654795e+000 -9.5793896403869572e-001
    2.0143176730165502e+000 -8.8728839829808781e-001
    2.0930749164513216e+000 -1.3551482996901603e+000
    2.1219721540369734e+000 -1.4155159849629053e+000
    2.0002049486744888e+000 -1.0144188696754053e+000
    2.0291581424277729e+000 -8.4320027513563078e-001
    2.0516178288226681e+000 -7.9715212162843951e-001
    2.0378424995352877e+000 -8.2347173396354367e-001
    2.0034294959188887e+000 -9.4312775043052799e-001
    2.0540098417915362e+000 -1.2609688231202847e+000
    2.1354778721190746e+000 -1.4419934424820418e+000
    2.0881775480452478e+000 -1.3442909859399674e+000
    2.0000884966374848e+000 -9.9063687911165399e-001
    2.0437158200492829e+000 -8.1163519888255775e-001
    2.0528062782892529e+000 -7.9509511065027505e-001
    2.0378424995352877e+000 -8.2347173396354367e-001
    2.0294475122220090e+000 -8.4249048053388109e-001
    2.0000603905722758e+000 -9.9225899949454832e-001
    2.0365272248777946e+000 -1.2102552383425096e+000
    2.0226653360339202e+000 -1.1623087104816598e+000
    2.0133408492795049e+000 -8.9097537788156411e-001
    2.0327314973382773e+000 -8.3470855759821283e-001
    2.2348243711882327e+000 -1.6160202405974622e+000
    2.2725502032447480e+000 -1.6758314995706669e+000
    2.1320164849088821e+000 -1.4352961693906010e+000
    2.0930749164513216e+000 -1.3551482996901603e+000
    2.0192727894978431e+000 -1.1487969121437627e+000
    2.0051426971083353e+000 -1.0743300340335047e+000
    2.0181306037414055e+000 -1.1440200477650666e+000
    2.1506561482077369e+000 -1.4707145520668041e+000
    2.2504750224198466e+000 -1.6411439529548413e+000
    2.2327938470987023e+000 -1.6127255353686334e+000
    2.0744144943585208e+000 -1.3125231994980089e+000
    2.0430008076717590e+000 -1.2299784003651655e+000
    2.0540098417915362e+000 -1.2609688231202847e+000
    2.0876431253309855e+000 -1.3430931027180533e+000
    2.1259294265670157e+000 -1.4233727898937443e+000
    2.2020111642489395e+000 -1.5616717213937263e+000
    2.3752802434473441e+000 -1.8283343223590600e+000
    2.3767611811532605e+000 -1.8304463411499343e+000
    2.0013263377640080e+000 -9.6423821099631968e-001
    2.0263477818813622e+000 -8.5032017350113609e-001
    2.0485219634969951e+000 -1.2458700039754731e+000
    2.2208797553096389e+000 -1.5932200780421706e+000
    2.1213203435596424e+000 -1.4142135623730949e+000
    2.0696599963991775e+000 -1.3010500672660676e+000
    2.0060022978112997e+000 -1.0805337530541848e+000
    2.0055028661584418e+000 -9.2851911840137258e-001
    2.0070671969701559e+000 -9.1939274462436593e-001
    2.0050253805632985e+000 -1.0734471260357292e+000
    2.0318174466008174e+000 -1.1949912017226894e+000
    2.0244700413315244e+000 -1.1691417989202912e+000
    2.0149208708811917e+000 -1.1298390650217234e+000
    2.0371817152210530e+000 -1.2123105912665162e+000
    2.0919729144227643e+000 -1.3527235900623276e+000
    2.1418546280720649e+000 -1.4541835102656964e+000
    2.1912561159679425e+000 -1.5432895835160725e+000
    2.2451743303897058e+000 -1.6326870999725549e+000
    2.4352782915188276e+000 -1.9123657749350302e+000
    2.1965819803867417e+000 -1.5524309456475622e+000
    2.0000737742650769e+000 -1.0086261610097504e+000
    2.3330874932647370e+000 -5.6585721206788919e-001
    2.0783498930923501e+000 -7.5653636190273688e-001
    2.0897924422089265e+000 -7.4189768500505038e-001
    2.0568773567488625e+000 -7.8825933876224297e-001
    2.0375113195387740e+000 -8.2417124540852660e-001
    2.0633050981607202e+000 -7.7806433558453336e-001
    2.1286122078745242e+000 -6.9996082418450611e-001
    2.1930200402056736e+000 -6.4669425316494511e-001
    2.2001898390981851e+000 -6.4160955226053418e-001
    2.1868954762921398e+000 -6.5114924611070668e-001
    2.1921366647474585e+000 -6.4733033617491409e-001
    2.1292885288938681e+000 -6.9931234711729084e-001
    2.0715400249101852e+000 -7.6591909305472694e-001
    2.0226653360339202e+000 -8.6035662555226056e-001
    2.0042424493759117e+000 -9.3695260516837098e-001
    2.0093025030914484e+000 -9.0808967931126805e-001
    2.0161659086585444e+000 -8.8068105948765862e-001
    2.0318174466008174e+000 -8.3682624487812818e-001
    2.0114935577057409e+000 -8.9838485276673574e-001
    2.2075455873381373e+000 -6.3653154972326664e-001</input_scale>
  <output_scale>
    5.2631578947368418e-001 4.9999999999999994e-001
    5.2631578947368418e-001 4.9999999999999994e-001
    5.2631578947368418e-001 4.9999999999999994e-001
    5.2631578947368418e-001 4.9999999999999994e-001
    5.2631578947368418e-001 4.9999999999999994e-001
    5.2631578947368418e-001 4.9999999999999994e-001
    5.2631578947368418e-001 4.9999999999999994e-001
    5.2631578947368418e-001 4.9999999999999994e-001
    5.2631578947368418e-001 4.9999999999999994e-001
    5.2631578947368418e-001 4.9999999999999994e-001
    5.2631578947368418e-001 4.9999999999999994e-001
    5.2631578947368418e-001 4.9999999999999994e-001
    5.2631578947368418e-001 4.9999999999999994e-001
    5.2631578947368418e-001 4.9999999999999994e-001
    5.2631578947368418e-001 4.9999999999999994e-001
    5.2631578947368418e-001 4.9999999999999994e-001
    5.2631578947368418e-001 4.9999999999999994e-001
    5.2631578947368418e-001 4.9999999999999994e-001
    5.2631578947368418e-001 4.9999999999999994e-001
    5.2631578947368418e-001 4.9999999999999994e-001
    5.2631578947368418e-001 4.9999999999999994e-001
    5.2631578947368418e-001 4.9999999999999994e-001
    5.2631578947368418e-001 4.9999999999999994e-001
    5.2631578947368418e-001 4.9999999999999994e-001</output_scale>
  <inv_output_scale>
    1.8999999999999999e+000 -9.4999999999999996e-001
    1.8999999999999999e+000 -9.4999999999999996e-001
    1.8999999999999999e+000 -9.4999999999999996e-001
    1.8999999999999999e+000 -9.4999999999999996e-001
    1.8999999999999999e+000 -9.4999999999999996e-001
    1.8999999999999999e+000 -9.4999999999999996e-001
    1.8999999999999999e+000 -9.4999999999999996e-001
    1.8999999999999999e+000 -9.4999999999999996e-001
    1.8999999999999999e+000 -9.4999999999999996e-001
    1.8999999999999999e+000 -9.4999999999999996e-001
    1.8999999999999999e+000 -9.4999999999999996e-001
    1.8999999999999999e+000 -9.4999999999999996e-001
    1.8999999999999999e+000 -9.4999999999999996e-001
    1.8999999999999999e+000 -9.4999999999999996e-001
    1.8999999999999999e+000 -9.4999999999999996e-001
    1.8999999999999999e+000 -9.4999999999999996e-001
    1.8999999999999999e+000 -9.4999999999999996e-001
    1.8999999999999999e+000 -9.4999999999999996e-001
    1.8999999999999999e+000 -9.4999999999999996e-001
    1.8999999999999999e+000 -9.4999999999999996e-001
    1.8999999999999999e+000 -9.4999999999999996e-001
    1.8999999999999999e+000 -9.4999999999999996e-001
    1.8999999999999999e+000 -9.4999999999999996e-001
    1.8999999999999999e+000 -9.4999999999999996e-001</inv_output_scale>
  <weights>
    <_>
      -1.7668825191927646e+000 8.7316643659391541e-003
      -1.4726209463272541e-001 2.1938651408347243e-001
      1.5673971077464890e-001 1.2974494130590342e-001
      6.4043004430802977e-002 -1.5748121286061265e-001
      1.1363699769529448e-001 -2.9500118758900223e-001
      1.0680940279229052e-001 1.5190965311016952e-002
      9.2942710870414766e-002 3.0531929062147051e-002
      -3.6081628220254069e-002 7.6283710974748870e-002
      -2.2601352395825267e-001 -1.8638787437071000e-001
      -3.6295294667762779e-001 5.5041214357271946e-003
      -1.6065115789339310e-001 2.1656713963704799e-001
      -8.6362941369346108e-002 1.9408940615671677e-001
      -1.5820098534075389e-001 1.2321510460697187e-001
      -2.1812418485510296e-001 -4.4999288374734082e-002
      -3.8716243511529275e-002 -4.3770129544252349e-002
      -2.8377660606216986e+000 2.8373665518935054e-001
      -2.7771090768930261e-002 9.4863491819361725e-002
      -2.8010283654049756e-001 1.9158092647612232e-001
      -1.7345893639843981e-002 -1.6980229840539923e-001
      -1.4864471674630590e-002 -1.1177923691040280e-001
      3.9373071519522740e-002 6.6789539471142231e-002
      2.5285765518787634e-001 -1.7247528361541503e-001
      -2.6526129186329200e-001 1.2980148769968190e-002
      1.4634866707990050e-002 1.8828685854778055e-002
      5.1799638813293303e-002 3.1150603125482668e-002
      -1.2739596257534042e-001 -7.5867734017322552e-002
      -6.6978255151560154e-002 1.4248798386389738e-001
      -3.3776011284326814e-002 -2.7724321448358102e-001
      -1.9220721857350012e-001 -2.0422973152865398e-001
      -2.2627686813785033e-001 -9.2177922012967844e-002
      -1.0138794973030902e+000 1.9639807007255014e-001
      -7.4475855706011868e-002 1.9484762709900813e-001
      -1.9079588354588103e-001 1.6653899447288809e-001
      1.8462852254754622e-001 -1.7017690392168722e-001
      1.4792415766575506e-002 -1.2285796229674510e-001
      1.4810256355097365e-001 -1.2517697952475115e-001
      1.5940003858968532e-001 -1.5070211997802582e-001
      -1.8313635847088833e-001 1.2640920682391504e-001
      2.3969518900110093e-001 8.0950616532557446e-002
      3.9538374821601226e-002 2.2544800085650150e-002
      -7.7660272806003253e-002 3.3670963537113942e-002
      4.5364370935471153e-002 3.1989684688654846e-001
      1.0861777916934667e-002 -1.6388568705886489e-001
      -2.9050150985404882e-001 3.1600530509381622e-002
      1.0139948680117539e-004 -2.2336459000623043e-001
      -1.4401866809187497e-001 9.7294821037138574e-002
      9.6669400608765342e-004 7.2070526097997051e-002
      -7.5130319416537181e-002 -4.3309825686154747e-002
      1.0436734733842234e-001 -2.1877847954971063e-002
      -4.0329549906245987e-002 7.2811436081148539e-002
      -6.6148112129187212e-002 1.5275855481720417e-002
      1.1466066598719622e-001 1.5734655552552209e-002
      -1.1133730459891741e-001 -2.0118514571588437e-002
      1.1263278234576016e-001 9.8283207226575464e-002
      4.2179569695830699e-002 -1.5570253542200779e-001
      -1.3155074630693459e-001 -1.0950362069347136e-001
      1.3810255967546575e-002 -8.5309560223863518e-002
      -2.1486495626887040e-002 -1.5936469010140125e-001
      -2.5965432146804152e-001 -2.4616026917577586e-002
      -1.5131133560045129e-001 -1.3103058721309990e-001
      1.4361682247805789e+000 5.3661082252028482e-003
      4.1754246988941875e-002 2.1311824888286902e-002
      1.2311596031895160e-001 -5.3353897577497679e-002
      -1.1519659188460979e-001 4.6190030249345412e-002
      -8.7308651967668391e-002 1.9455135839636448e-001
      -3.4067073096243919e-002 -1.6796471704959690e-001
      6.5257309402345240e-002 1.6416009102216705e-001
      5.0779673194849481e-003 -9.6335372228699562e-002
      -9.4951723915998806e-002 6.0313251688014928e-002
      1.3152283320658148e-001 -9.0298548860586803e-002
      2.8721499749438512e-002 -1.8094301239896413e-001
      7.7262481713808229e-002 6.2964242106172089e-002
      -2.5531012611011122e-002 1.1423500672624591e-001
      -2.1433755524888697e-002 1.0629487089451203e-001
      -4.3451560561161651e-001 -6.0984372344379902e-002
      2.3624758577693523e+000 -1.1481110888510265e-001
      9.3646361402971390e-002 -1.8479376101729150e-001
      1.3409090602932813e-001 -2.5552487037705622e-002
      -1.1331654010169118e-001 8.3013177580448974e-002
      -1.1116433592942415e-001 4.1191237371845218e-001
      -6.8028814813147140e-002 1.4701155474446989e-002
      -1.1999432373631698e-001 1.0465787293544901e-001
      7.7351019041666013e-003 -1.8704224457356597e-001
      2.0955602705819556e-002 2.0171154351889894e-001
      3.1275063848446161e-001 -3.8670809804154813e-002
      9.7711715741720162e-002 -3.0596935380508133e-001
      1.1609645425918094e-001 2.8735280185358123e-002
      4.4930977974993467e-003 8.8514235017313272e-002
      1.9166191837396840e-001 2.1252598854232843e-001
      -3.4940322657858136e-001 -6.0504456120838900e-002
      2.0919513521570847e+000 -7.0768418958328569e-002
      8.2489010260054202e-002 -1.6482256861055350e-001
      9.0411848008011372e-002 -3.7686579515576121e-002
      -1.7967380824734627e-001 9.9513781098457488e-002
      -9.9553005547503251e-002 2.6755996400138027e-001
      -9.3625968662916517e-002 -1.2778992303596635e-002
      -1.1877436340693423e-001 1.4288073958127111e-002
      -1.6513457044492023e-002 -2.3413888019760878e-001
      3.1763109743963777e-002 4.3421435189799906e-002
      8.8321704273264037e-002 2.0443994865809893e-002
      2.5972561304586297e-004 -1.1872574867790499e-001
      5.6270116581134622e-002 6.0348042973668643e-002
      2.4205596605885935e-003 3.3445212120535694e-002
      1.0245404993258728e-001 2.8509654828238756e-001
      -1.8455565450078928e-001 -1.1894633000225889e-001
      1.9359460364398835e+000 -3.9432024745801972e-002
      -1.4747279638911188e-002 -1.6305966095881655e-001
      -3.0132794382869494e-002 -1.8962474775420929e-002
      -1.0356508223166710e-001 3.4788304527669449e-002
      -1.1426120127724424e-002 2.1037620082257744e-001
      1.8317226112577814e-002 -3.0283560108445972e-002
      -4.0687666396880637e-002 -6.9217233623028118e-002
      1.2885283457677038e-001 -1.3651434261115439e-001
      -6.0744916523032761e-003 8.6058047283430264e-002
      3.4064251127962485e-002 -1.4564125967730922e-002
      -1.1554637986366188e-001 -2.1583837983104848e-001
      4.2366278602388452e-002 -8.2878377589005583e-002
      9.5700417757239656e-003 2.3158243484040889e-002
      1.8623376019634472e-001 8.1332971692711309e-002
      -1.6389511209175309e-001 -9.8988040846332184e-002
      1.8454226189991736e+000 -1.1927049666972600e-001
      -3.8883690530481262e-002 -2.0705427381131958e-001
      -4.0555514477995054e-002 -2.5443447729032388e-002
      -7.5408980916285742e-002 6.3868658943541856e-003
      2.2852357003874681e-003 2.7467328025531584e-001
      -3.3439302104567165e-002 -9.1733762389039630e-002
      -7.2103473516741221e-002 -4.4429176589770629e-002
      -1.3026317883947677e-001 -1.0394052475528646e-001
      -1.1478572855345027e-002 1.5202288749782153e-001
      7.4779824261276637e-003 9.0670718252385350e-003
      -1.2007814794772212e-001 -2.7662194944927848e-001
      5.3555908278130698e-002 -8.9395089379450579e-002
      -7.9632771954037618e-002 2.2083633433092796e-002
      9.5235505785504868e-002 5.8509727806854137e-002
      -1.7113031634464779e-001 -1.1451260565130182e-001
      9.2060486127123919e-001 -1.7784040970290602e-002
      -1.6770633924921957e-001 1.1636304256796398e-002
      -1.9598974525540561e-001 -1.2411865610636742e-002
      -3.0934849635982978e-002 3.9125856969804820e-002
      6.8055723657379025e-002 2.2401836136111722e-001
      3.0970594233543130e-002 -1.0123376002088401e-001
      -5.6000207148737043e-003 -1.2452569769526252e-001
      -1.0069879538866114e-001 5.6730564355118286e-002
      -1.2179293290527235e-001 2.2471072463481712e-001
      -1.2802395201306264e-002 1.1710031883155017e-001
      7.0679397800976970e-002 -4.1904712008059791e-001
      7.7860708066019621e-002 -2.3198519488387293e-003
      -1.2400566575102458e-001 -5.7115660684548659e-002
      3.0772651006883817e-001 -2.1600939271834999e-001
      -1.7767122251211818e-002 -2.5120131545742056e-002
      1.1579287175993240e+000 -1.7218790485594407e-001
      -4.3660702799170739e-002 7.9236040183470718e-002
      -2.5494525550384001e-001 -1.1289608365315217e-002
      -2.6911017313190344e-003 -7.1732984385732723e-002
      -4.3112350138171739e-002 1.2553418322837584e-001
      1.7575257601403838e-003 -2.5321145461268335e-001
      -1.3269452284064755e-003 -4.7206749178785208e-002
      -1.2239628146972877e-001 -9.0018547541152426e-003
      -7.0015951763794201e-002 1.9113993836921098e-001
      8.7754480311441230e-002 2.7631915147776331e-001
      3.2982736534843328e-002 -2.0868855545839551e-001
      8.8288660758233158e-003 -5.0219843846597889e-002
      -1.4487216145409981e-001 -9.9869261177803495e-002
      1.7063110938990081e-001 -1.7833261084249033e-001
      -1.1138719771480721e-001 -1.4574495226854450e-001
      1.3812864919569792e+000 -1.7423942683064014e-001
      -6.4612094741627366e-002 3.0869687808366939e-002
      -2.6369480346246565e-001 -5.8824336018420048e-002
      -9.9131285182503137e-002 -8.6695508132262830e-002
      -8.4133792399940302e-002 7.2077935528318191e-002
      -6.4550895326650315e-002 -4.0147362835412773e-002
      4.5087593015906719e-003 -7.7955586978013483e-002
      -5.2552181041451387e-002 8.9548061301923790e-002
      -3.3494121461419064e-002 2.1780185246880915e-001
      1.5626129161452729e-001 2.3245425401995898e-001
      -3.4759301918447054e-002 -2.2007100762446366e-001
      -9.8801225952392276e-003 6.1821151718649055e-002
      -1.0468857719739251e-001 -1.5260688450115525e-001
      2.9781011323202483e-001 -1.2315443667688187e-002
      4.8486051332401629e-002 -7.6730232792573211e-002
      1.0790251024934203e+000 1.1540208942982686e-002
      -7.8569234592698142e-002 -3.7989495561492295e-002
      1.1168837590268135e-001 -1.4850992394204968e-001
      -1.1433502131437275e-001 -1.8380340426943680e-002
      -3.1586286545285736e-001 7.1945682772039570e-003
      -5.8151800559106279e-002 -9.6416349173265123e-002
      -8.4814987788221191e-002 4.6846523208375658e-002
      -6.5836035876500774e-003 -4.5661657171534600e-002
      -6.2862611027972581e-002 -7.8151534188701577e-002
      -6.6533857842049947e-003 1.6636075716421070e-001
      -2.6606301740366042e-002 -3.1646890896838742e-001
      7.9521715019672951e-002 7.8276356609055225e-003
      -1.7007373463397249e-001 -3.3933910128092541e-002
      1.7486770431443727e-001 1.7421958954148255e-002
      3.7615534548020253e-002 -1.4594546170261041e-001
      2.2125060044831399e+000 1.6455806203034901e-001
      -1.7036582940468156e-002 1.4327126805375806e-001
      5.4830467426840557e-001 -1.8092715398020007e-001
      -1.5242102460278342e-001 1.6014004433367207e-001
      -3.7871424689878352e-001 -2.5045191618027002e-002
      -1.0299333695590298e-002 -2.0950381356765008e-001
      -1.4737265635441710e-001 -5.6227022859294463e-002
      1.8834936737034119e-001 -1.9961394509254510e-001
      -1.6839787027124009e-001 -4.1889925688775398e-001
      -2.0354626484194288e-001 1.7251871390242773e-001
      1.6351547012924635e-002 -1.4499525704521851e-001
      1.4001084636391048e-001 -3.3039118997929633e-003
      -1.8167246124863706e-001 1.8664989789612205e-001
      1.3257500467815983e-001 -1.5853143095724292e-001
      1.1081975822422162e-001 -1.6080597217191220e-001
      1.3033130812699663e+000 -1.1442228274926501e-001
      -2.5905477927247283e-001 -2.4991413479060523e-001
      9.7140718814619734e-002 1.1763576788631576e-001
      -5.4477419703016026e-002 -2.4512612486957991e-002
      -8.8042840667348521e-002 1.0518887263617846e-001
      -6.6193256319249466e-002 -3.3089935050115517e-002
      -8.5309054981643068e-003 -2.8210632493229793e-002
      5.2935170476193637e-002 1.1736691967785433e-001
      -6.1211049435481557e-002 2.7642398710697452e-001
      -1.4393040998412290e-001 1.6211933922098572e-002
      -1.0032503462892652e-001 2.9827843498886585e-002
      5.6326347750137850e-003 -2.2262757118706525e-001
      -2.1505937399595283e-002 -6.9037599915777320e-002
      7.3897610394514993e-002 -2.5762071182695301e-001
      1.1410158284956769e-001 2.7639383860309663e-001
      2.2321956130048028e+000 -1.1173278100147271e-001
      -4.9589872658142367e-002 -1.3422174634437817e-001
      2.8229911343740033e-001 5.2414443217122103e-002
      -1.5941500866307021e-001 4.2576607425927554e-003
      -6.2568600540248528e-002 6.3190960875684543e-002
      -8.5063600464224634e-002 -1.2287063253573453e-002
      -1.2312560668736684e-001 1.3974039789102602e-001
      1.6755134312733816e-001 5.5298975045286712e-002
      -1.1829053650570776e-001 8.1419733952404066e-002
      -9.8316393665196677e-002 -4.9341239171855449e-002
      -9.4230037438706116e-002 1.7135057120441666e-001
      9.8963180245210461e-002 -1.3621835750553959e-001
      1.0163633530187613e-001 4.8719962237335740e-002
      -1.1144697693345915e-001 6.5426444791837166e-002
      1.4181591597455767e-001 2.9233736037322527e-001
      1.2236234214270747e+000 1.2377736407066548e-003
      -5.4032020193415985e-002 -2.4405068716212484e-002
      2.1687390023668243e-001 -4.6117321420261405e-002
      -1.2823467275513495e-001 -4.9118396337048320e-003
      -7.5891252215879636e-003 3.8871209492987203e-002
      -3.7576353504561711e-003 1.2812657500022578e-001
      2.8617223773577914e-002 -6.7484481084761280e-002
      2.0307744901003988e-001 5.7737985767172290e-002
      -5.2547268308421914e-002 -6.0301380165884343e-002
      -1.5670981252994931e-001 2.2010094954441811e-002
      -6.1788962044008855e-002 2.5396084553871850e-001
      3.0475018255131596e-002 -9.3942074910894263e-002
      1.9688776925044277e-001 4.3789368172060097e-002
      -1.9525279187995997e-001 1.0535189348614078e-001
      1.1589208164367507e-001 3.2468830471997401e-001
      -8.5296603802152937e-001 1.0665198199684457e-001
      8.5221734170963570e-002 -3.9678468337015618e-002
      5.7882527589469421e-002 -1.0960639125972409e-001
      1.2626504388336551e-001 -1.4954459183934149e-001
      1.2574779837791653e-001 -2.2266087879612703e-001
      -2.5644683547593559e-002 1.4718368508878507e-001
      -1.0066867869065524e-001 -1.9684778613708342e-001
      -2.5445906118403749e-001 1.2997970087911706e-001
      2.0992571527895035e-001 -1.1630302203318799e-001
      -1.8712518726978994e-001 3.9807103627246813e-002
      -2.9120966852001684e-001 1.3750339028246317e-001
      -2.4068659739497306e-002 -1.9967570876803082e-002
      7.1070398643593935e-002 -9.3688811404329261e-002
      -1.7644365976504398e-001 -7.2757206056148716e-002
      6.5631965307244772e-002 -2.0106219168114675e-001
      -2.2454319752237373e-001 3.5159226070244748e-001
      -4.4941610138746264e-002 1.4317342105323530e-001
      -6.8518832513876596e-002 -2.0658513894642475e-001
      2.5871277601019449e-001 -2.1126046804478127e-001
      6.1592702514699240e-004 -3.7344479055610291e-001
      1.3206895619638093e-001 1.3399894080040144e-002
      -2.4905007870621641e-002 -1.8535756227248237e-001
      -2.8637615651114107e-001 2.9694367424317342e-001
      3.3252145479153461e-001 -5.0580238836242086e-001
      -2.8238829658938591e-001 5.7593132064204987e-002
      -5.1744508359209584e-001 2.3237930605008911e-001
      -1.0439144127757947e-001 -2.1389966164559390e-001
      2.8508898687435547e-001 -3.0394249613697144e-001
      -1.4975692015859110e-001 -4.9354951679943698e-001
      7.5939432146873154e-002 1.6943599390517587e-002
      -5.4033219212386829e-001 1.5205133073631991e-001
      1.2267260515975419e-001 1.5407997552189165e-001
      7.5079288049894430e-002 -2.5498767493323596e-002
      5.3243311693974471e-001 -1.5530593081439267e-001
      1.4587875574273546e-001 -2.0602310777719679e-001
      1.9120401910944759e-001 2.2252096102760838e-001
      -4.6497455586548206e-004 -1.2234871466903795e-001
      -3.4803708068394906e-001 2.4671204842184122e-001
      3.4374598859817534e-001 -5.3417349303904149e-001
      -1.3391833092471103e-001 3.7051946980712597e-002
      -2.9080373300169338e-001 2.1119729996324291e-001
      -1.0315480034146729e-001 -2.7138801111005295e-001
      2.6038426806109516e-001 -2.0479864835443129e-001
      -3.6812910274697336e-001 -4.3619253530154206e-001
      3.0846436405848249e-001 3.9375420139854116e-002
      -3.1936277817835701e+000 1.1610017058163699e-001
      -6.7703598571072388e-002 -3.7852690456349875e-001
      -3.8408964497553261e-001 9.6609871628402094e-002
      3.4256680089377517e-002 -1.2942850603742401e-001
      -8.8815104620481089e-002 -5.1791463404487086e-002
      -3.7691353218671612e-002 -4.4968857739371593e-002
      1.8560210987403114e-001 -2.5885704113662762e-002
      -2.3364892982367688e-001 1.2932597729885373e-001
      7.3377186029662603e-002 1.4013905721824665e-001
      4.0203042368986769e-001 1.9682832149988724e-001
      -1.8828973969215229e-001 -1.4722679826933252e-001
      -7.3166734879808334e-002 1.7980631926884763e-001
      -1.0827104673731129e-001 -1.3794492254705729e-001
      -1.2699934427754195e-001 -9.0130121849303621e-002
      -3.0196785414723737e-001 -3.1472068483510113e-001
      -2.7509416746081623e+000 7.3175377276162301e-002
      -4.9084008300244002e-002 -1.0197628809955410e-001
      -3.7155829840081261e-001 2.4818360493435051e-002
      8.4545925367569899e-002 -2.2450954201771525e-002
      -7.1137324126339940e-002 5.8465046352820377e-003
      6.6155578503050816e-002 -1.8990461084886298e-001
      2.8997415248994540e-001 2.7117400692673869e-002
      -1.6752053023680019e-001 -1.0355122593365103e-002
      5.5315366713821444e-002 1.2124349983884090e-001
      2.5196272805311493e-001 2.4752543982446240e-001
      -1.4670287866826423e-001 -1.0658818669389203e-001
      -7.4809593141246133e-002 1.4242125195592256e-001
      5.0047679467356533e-002 -2.0928857239617288e-001
      -2.7105559957621245e-001 2.0788021161736687e-002
      -2.8608691496194882e-001 -1.4018955445722406e-001
      -1.9416455612698840e+000 -2.7738398084716648e-001
      8.8121171587969473e-004 -1.4812865851246423e-001
      -5.0492278292835778e-002 -1.0833391277507108e-001
      -1.4479206937265046e-001 1.5959590112836364e-001
      -1.8399696364756404e-001 3.7559868362028026e-001
      -1.1352685284430009e-002 -2.4908499061382675e-001
      2.3269228712403858e-001 2.3179164368222291e-001
      6.4061302920280241e-002 -5.5541478828125136e-002
      -1.9108543823591229e-001 2.5724002321446582e-001
      3.0571276904129585e-001 2.1135353632689718e-001
      4.3964509746694039e-002 -4.4897093113469294e-001
      2.5586047096754655e-001 2.4104354918068147e-001
      -8.6740032081950968e-002 4.3855227965316594e-002
      -9.1822213302393624e-002 -1.3840909286392524e-002
      -3.2415411117533166e-001 -3.4870200864475970e-001
      -3.0226381245239409e-001 -3.5741414898134227e-001
      1.2973506697413115e-001 6.8108513968817244e-002
      2.4927797533760673e-001 -2.2054195919948505e-001
      -1.8074420118853346e-001 2.2414859666214426e-001
      -2.4422938435646563e-001 4.2926789353681644e-001
      -8.9810553644206523e-002 -2.1486609787046210e-001
      1.0189979668540795e-001 3.7514887966544386e-001
      4.8377865575628481e-002 -4.5014231405909357e-002
      -2.3753163483659787e-001 3.2808382842364292e-001
      3.5853126287185977e-001 2.2662782136993692e-001
      5.6411540075595824e-002 -5.7499829221898535e-001
      2.5348885447878461e-001 1.9236476576495376e-001
      -9.9262070474694666e-002 1.2723136388874215e-001
      -1.9153216445214259e-002 1.3762888743475902e-002
      -3.3595907428750510e-001 -2.6548358144677059e-001
      3.5430715793752154e-001 -5.1543478676756926e-001
      1.5334467426312326e-001 -5.2371003238197936e-003
      2.0326055228304521e-001 -1.6834349337297599e-001
      -1.6326405338126992e-001 1.7278023925948785e-001
      -2.3403216810633440e-001 3.9632956636316047e-001
      -1.7747331601547683e-001 -2.0820315746142504e-001
      5.5975305696815955e-002 3.7224759542246616e-001
      4.4558253227347966e-002 -6.8269525878184273e-002
      -3.7502831556275484e-001 3.6781465493141841e-001
      3.7578547439579024e-001 1.0439674112915905e-001
      6.1139437401428964e-002 -5.8573729495236759e-001
      2.0670608695495671e-001 1.0770397617877533e-001
      -6.9271239692080655e-002 1.3368739819212042e-001
      4.1374203254775602e-002 1.3066547397194694e-001
      -2.1133335105037754e-001 -1.4045478226247532e-001
      8.4286876414102474e-001 -4.5305323977860501e-001
      1.0712868355992529e-001 -2.1119645950005728e-001
      1.1732329147322273e-001 -1.5107288081947765e-001
      -2.7038460515312607e-001 2.1496917157128292e-001
      -1.9340926570954955e-001 5.4684082528776268e-001
      -3.2800304910626388e-001 -3.3564384872540542e-001
      -6.4714096452678074e-002 2.7718951927899316e-001
      1.0192935997544271e-001 -5.1958158723250950e-002
      -2.8924310105066059e-001 5.5046434653871656e-001
      3.9821277605334826e-001 2.4910377019679922e-002
      8.1338587421552311e-002 -6.3772805268762056e-001
      1.8461152953699778e-001 2.1484340493781638e-002
      -7.6578175432242185e-002 6.7863120691435450e-002
      7.3446240745089569e-002 1.6352361028790138e-001
      -2.5709949754886829e-001 -2.7137992212111828e-001
      8.4642254804541339e-001 -4.9304011842697903e-001
      1.1778682038485805e-001 -2.4692824207748568e-001
      1.2990193262701594e-001 -1.3444302781148249e-001
      -2.8131411405663320e-001 2.2778682742833822e-001
      -1.8022032637712213e-001 5.4263667553571548e-001
      -2.4791246026301006e-001 -4.2538596638223353e-001
      -2.5887999950655799e-002 2.4438751534505115e-001
      9.5016154056922097e-002 -2.8301622727895152e-002
      -2.9781718374300675e-001 6.0368434259498527e-001
      3.8306927226637277e-001 3.0844821434706043e-002
      6.6479824835746701e-002 -6.7961767997508293e-001
      1.6677747665324597e-001 -2.2428945594359019e-002
      -4.1669105070602182e-002 1.1070113294265307e-001
      1.5049290229945758e-001 1.6437297001874335e-001
      -3.1353286458664825e-001 -2.0693133375594069e-001
      1.2172692361633570e+000 -2.3754557517634847e-001
      1.2150118979657325e-001 -3.9556107055841755e-001
      -2.2038075392772102e-001 -5.0024970714403906e-002
      -2.0803491292038115e-001 3.8614689408891997e-003
      4.2108295139243780e-003 6.8625198571844614e-001
      -2.5355947008236290e-001 -3.0554288047302330e-001
      -1.5419979168712072e-001 2.1046322702148718e-001
      -1.6206613537342268e-001 1.7415421435244785e-001
      8.2012541568401751e-002 5.5147093377631473e-001
      2.8545394840066018e-001 -9.7076755143166313e-002
      1.5623525024162612e-002 -6.1883972843622725e-001
      -4.1200800797278538e-002 -1.9490945249126085e-001
      9.4013102128555542e-002 -1.1181058056723986e-001
      2.2922113680535336e-001 1.0628788133540196e-001
      -2.6907066436967619e-001 -1.5183565577773026e-001
      2.3099666265653505e+000 -2.1280653803121496e-001
      9.9854556611346970e-002 -3.1672321238881118e-001
      -1.9011062491490574e-001 -1.5106860158971997e-002
      -2.5926932990024198e-001 1.4663396099104579e-002
      -2.0475516957704155e-002 4.4504298623557170e-001
      -1.9218050829921757e-001 -4.3907200989351780e-001
      -1.8890502870167317e-001 7.7519480463995039e-002
      -1.3317371941376943e-001 1.8765144329447961e-001
      5.1856628205730768e-002 5.2506319659982614e-001
      2.4820515625179215e-001 3.7873532886172526e-002
      -7.2041963775844167e-002 -3.5356663596954763e-001
      -9.4151797482763741e-002 -1.6726937857576205e-001
      4.2259331064815719e-002 -4.1878138583037260e-002
      2.6899986115751029e-001 2.6177140000559646e-001
      -2.8964292572782924e-001 -1.7516031070336249e-001
      2.7638671196299271e+000 -2.1241541403419029e-001
      6.6227501069471284e-002 -2.2783894527774609e-001
      -1.4822633957355846e-001 8.5631982878277779e-002
      -1.2595394991859010e-001 3.4839190085358615e-002
      -4.0435487054909944e-002 2.1617308323141479e-001
      -1.3429020383675558e-001 -3.0033093460644850e-001
      -3.3375129073816751e-001 -1.8853190542659534e-001
      -8.3280469343078256e-002 1.9786819373243011e-001
      1.2413515572636427e-001 3.4781208802567104e-001
      1.8452181495308168e-001 1.7436043543348786e-001
      -7.3417560459424517e-003 -3.0758834181161782e-001
      -7.7541073066590277e-002 -8.8873770603510843e-002
      -1.8864436459911343e-001 -7.3588080125453259e-002
      3.7385015966521251e-001 4.1971834402359458e-002
      -2.4413953239799144e-001 -3.1508926955489164e-001
      2.4341751321159784e+000 -2.9713517272930610e-002
      1.2640015212372267e-002 1.6743851640252598e-002
      -6.9081870402525683e-002 7.1035066229957838e-002
      -7.2860845003448596e-002 -1.1813198437102159e-002
      -9.7246788449484742e-002 2.7018720438382449e-001
      -1.2580856173440738e-001 -2.0061330976869968e-001
      -3.6596072255552603e-001 -9.4136809358523768e-002
      -3.2430857058679485e-002 1.8911890904504014e-001
      1.5325837125576581e-002 2.2712961700317288e-001
      4.4097384345182844e-002 4.6042726810402734e-001
      -4.4564156851293595e-003 -3.0918827257055431e-001
      -4.1903346482744852e-002 -5.8477933731087499e-002
      -3.7322990871317613e-001 -8.4824031374430883e-002
      5.0685015736557415e-001 -6.1598278895360521e-002
      -1.9953586448628452e-001 -5.3177964882999851e-001
      2.3207648397401615e+000 8.7520842619515746e-002
      -9.6277310388827364e-002 1.9909493316501447e-002
      -1.5243951212427234e-001 7.6302007392507490e-002
      -7.1200569335095665e-002 -2.9851933803668153e-002
      -9.6375157793717608e-002 1.4293903683683021e-001
      1.0890783528923340e-002 -3.7898024976991540e-001
      -3.5839223340958687e-001 -6.3397215519977596e-002
      -3.9479858661129075e-002 2.8383479359744657e-001
      1.7698473678365145e-001 1.8150533464076163e-001
      -3.5937225159138657e-002 3.9139507946885022e-001
      -1.0095037026925077e-001 -2.0482438601710526e-001
      4.9548880099354728e-003 -4.3983925487305883e-002
      -4.4258653091345918e-001 -1.0632416124274864e-001
      4.9227960514968083e-001 -2.1378719802802956e-001
      -1.3441819636077890e-001 -6.6865868541568130e-001
      2.6297649121445001e+000 1.0280226221613190e-001
      -7.4488814089462702e-002 3.1602117119006211e-004
      -9.0652515258872426e-002 -3.5362497268240048e-002
      -6.9286122553001523e-003 -1.1563680423859031e-001
      -1.3682251284388094e-001 1.8507692679939733e-001
      -3.4938130191430432e-002 -2.7971822112391520e-001
      -4.8264875910326538e-001 -7.9532890531120046e-002
      -5.0792049450628929e-002 2.9056127868992015e-001
      1.3784820247938256e-001 1.3910071992992254e-001
      -4.2637422461144651e-002 4.1458958126984496e-001
      -1.0986535008813381e-001 -2.1155743998663595e-001
      8.3044864758656921e-003 -1.3029573896511407e-001
      -3.9901989387477144e-001 -3.5890295493726986e-002
      5.4203417031849488e-001 -5.2174777964754471e-001
      -1.0337309286477117e-001 -6.1269709638547309e-001
      2.5295453026476822e+000 2.1926146479780709e-001
      -8.7166287297213277e-002 1.1925374268687507e-001
      -1.9103727455307074e-001 -5.8370760076783768e-002
      1.0000150665339527e-001 -1.3844499795200091e-001
      -1.0252343782577546e-001 9.7957089339685846e-002
      5.4390681847033794e-002 -3.4004292098030625e-001
      -1.9316528517987139e-001 -8.5612720648657784e-002
      -2.2053132631694133e-001 2.2679856304539936e-001
      1.4490562186732392e-001 7.7425649668402333e-002
      -1.1330876343888872e-001 4.9464713143356709e-001
      -1.3021375996849138e-001 -2.2932631756729163e-001
      1.5877031719557875e-002 -1.1839245148439313e-001
      -4.1950483760915963e-001 -7.5630384213035487e-002
      4.7562593196979008e-001 -5.3170262582977490e-001
      -1.0415139996250571e-001 -2.9737187341321997e-001
      1.4371882322469265e+000 1.8746446212622916e-001
      -2.9536433554918118e-001 1.2763823053783588e-001
      -1.5505042611895922e-001 -5.0982252722657100e-002
      1.0331540120207759e-001 -7.9255662044175557e-002
      -5.8839729042083892e-002 1.6307112561015993e-001
      4.3279966257249239e-002 -8.2654860890669951e-002
      -1.8227911172050595e-001 -1.5915100600535417e-001
      -1.5779827245874162e-001 1.6868948558584373e-001
      1.0163536398162079e-001 -7.5775494704520233e-002
      7.1036381362780121e-002 5.0885700755182040e-001
      -9.8784528995046528e-002 -5.9100382409743780e-002
      6.6369653221262148e-002 2.8548230533287360e-002
      -1.0542470289071705e-001 -8.4872324879036593e-002
      2.7360819552544635e-001 -2.2140044489055402e-001
      -3.1869840007531784e-002 -2.9212265302362717e-001
      2.3258994311222092e+000 2.0572083678355965e-001
      -2.2905872841251321e-001 3.1754275816651883e-001
      7.7520209354226849e-002 -1.0411788655274522e-001
      -8.7507016883679345e-002 -2.5502637029324676e-002
      -1.7336393633787209e-001 3.9219696805519753e-002
      -2.6364159264257451e-002 -2.8541430557235022e-002
      -2.8552270726696882e-001 1.1383621338357217e-001
      2.6060060486826088e-004 1.8987629939140668e-001
      1.2304478592052431e-001 -1.3547259795334410e-001
      1.2246662567109454e-001 2.5506897406669504e-001
      -1.0189979464538952e-001 -1.2518537383551879e-002
      2.1273692262386779e-001 1.2953633414978155e-001
      3.9220921089480734e-002 -6.4299015032392867e-002
      2.4083247623997084e-001 -2.8513707626867602e-001
      -9.3039888409658308e-002 9.1861085190912364e-002
      1.3029713580190452e+000 1.8458736055754751e-001
      -2.0372343628571152e-001 1.7726284048464700e-003
      8.2156601174423582e-002 -2.1879499980271566e-001
      -1.0498059946221638e-001 -9.7834205385553905e-003
      -1.9625179171370974e-001 1.3953331508924399e-001
      -5.4587784891084290e-002 2.3325651134596515e-001
      -2.2083232865731253e-001 2.1497464502369065e-001
      -1.0019295962741986e-001 2.8996512375362427e-001
      3.1401841210010351e-001 -3.1514599156932895e-002
      4.4242735892331203e-001 4.8056014979197800e-002
      -1.7251488912170862e-001 -1.2221372155313909e-001
      8.8874468824297198e-002 1.6673890902104829e-001
      1.4090747384784835e-001 -2.9802371328317329e-002
      2.1421130996789847e-001 -2.5310248762186160e-001
      -3.3333737585219636e-001 1.7788927132081556e-001
      1.4706878084660964e+000 3.2288819839748006e-001
      -6.8962622844832164e-002 2.0955246051699525e-001
      3.8346310060389790e-003 -1.5276304365835200e-001
      -7.1651090543907031e-002 2.9286634936825262e-002
      -1.3200505753908104e-001 1.1008720720320617e-001
      -3.1874373516575724e-002 -1.2594017428313653e-001
      -2.5314055765356269e-001 1.7899690375156971e-002
      -1.1212727586170798e-001 2.5552129335147972e-001
      3.0476923969359065e-001 -8.8959805537960845e-002
      2.5981127217944083e-001 1.6111841145259725e-001
      -3.0328816500982175e-001 -1.3500175787017787e-001
      1.7137269955906281e-002 2.5931279966709181e-001
      1.3601100424615900e-001 -9.1186834301114683e-002
      4.3012359919170372e-002 -3.5219208168801475e-001
      -1.3715509301882206e-001 1.3585601122084556e-001
      1.2967739126324943e-001 2.4430708693650527e-001
      -1.0276575110432687e-001 3.0158558719380762e-001
      -3.2666220701511989e-001 -3.0738196796513212e-001
      1.3487791516427608e-001 -7.7978679898577222e-002
      8.9008524277577813e-002 -2.1719315351335070e-001
      -7.0851373072956428e-002 -5.6352474275248012e-002
      7.6249628517639098e-002 -3.7770384676769762e-002
      -3.1183336814846069e-001 4.6282703113890772e-001
      4.6107649632238551e-001 -3.0525432244101464e-001
      4.6095515240984972e-002 4.2659180132648182e-002
      -3.7915983664991060e-001 -1.1242608714073514e-001
      -1.1264088314540859e-002 3.7303421126538189e-001
      -1.3590524551849753e-001 -3.4411543471607187e-001
      -4.6670395611936966e-001 -1.2507590358607254e-001
      -2.8484918298224554e-001 -3.8461498831890012e-002
      -4.8780384847174540e-001 1.3597385072441726e-001
      -5.3872694257425253e-002 1.4303782606754875e-001
      -4.2301659979666384e-001 -1.8743347704729815e-001
      9.5317388494363664e-002 -1.1648248849606506e-001
      8.6165650377037148e-002 -8.1829298174450435e-002
      -1.3413851979970320e-001 1.9338629871746657e-001
      7.6011705681781006e-002 -1.6679288913359880e-001
      -5.0245240722133655e-001 3.1210526086996349e-001
      5.1874556921020731e-001 -2.2422139547581685e-001
      1.7480046541532593e-001 1.8857115249268275e-001
      -2.7010169225542024e-001 1.1143096960203036e-001
      -2.0955251063281621e-001 -8.1800937875011137e-002
      1.3711744592568648e-001 -2.1250626338344919e-001
      -7.5208400052113067e-001 -2.9544446476045616e-001
      6.5847140972615403e-002 -1.1990109211578771e-001
      -9.2372903465626613e-002 -6.4060775021400396e-002
      -1.7520128566101839e-001 -1.0096940109695068e-002
      -1.4660191656113314e-001 -1.3053760173925935e-001
      -1.7236620383150278e-001 1.1424095086187580e-002
      7.6291690724893640e-002 -1.6144238792492405e-001
      1.4719405267102600e-001 -1.2562943798341736e-001
      1.0514993922120427e-001 6.5756848365428305e-002
      1.3097699415012298e-001 1.7856048014184672e-001
      4.6086322996954823e-002 1.0354322089750186e-002
      1.0106375801732038e-001 1.2815070730587860e-001
      -4.0097279608250179e-002 -1.0354376285564042e-001
      -9.1039519203609170e-002 -1.9799705164530926e-001
      1.4298502803461871e-001 -2.2085245511343038e-001
      -3.3088776814550525e-001 -1.8081133580158876e-001
      5.1616734299557598e-002 -1.7358848762692228e-002
      -7.2740157573191866e-001 -3.3237933683073545e-001
      -8.5967835297581591e-002 -1.8823387434434663e-001
      -4.0331678195000248e-002 -2.1105991857755327e-001
      2.5392814507513167e-002 1.5506101476842202e-001
      -3.1112787348475401e-002 1.4336989343561368e-001
      3.5712962599197234e-002 -5.3811120910221381e-002
      -3.2567375450091682e-002 -4.7807702175819596e-002
      2.4127543801179274e-001 -1.9566876696885914e-002
      1.6737888138941809e-002 3.0591958024685284e-001
      1.0428521084047153e-001 1.8892656169603614e-001
      1.9601758067648459e-001 -1.0440339490612024e-001
      -1.1117499019282681e-002 -7.6385315134286827e-002
      -4.5865609095312405e-002 -2.3335695811844522e-002
      7.7968158266209148e-002 -3.7693038517650317e-002
      1.4778310536490538e-001 -6.7894444420948160e-003
      -1.0073857718963406e+000 -2.3640137400269370e-001
      -4.6597447579663089e-002 -1.7299137293481989e-001
      -2.9407429943243546e-001 -1.8756008254751555e-001
      -1.1501868940876570e-001 -1.2245374512740497e-003
      -9.3897643261075109e-002 8.6475221784313216e-002
      2.7676797526938399e-002 -1.1720052672072802e-001
      2.4517095722570123e-001 -2.3949368634431337e-001
      1.0051160673542137e-001 2.1285955728678731e-002
      -4.9810171933753693e-002 1.4091900283245040e-001
      -7.6484484883230603e-003 2.6740652217930466e-001
      5.4900203563986189e-003 -7.1593756563586575e-002
      -1.1976361985934414e-001 -1.1358319976266261e-001
      1.4846813895532765e-001 -2.4207958702087448e-001
      6.3980607481157789e-002 -1.6818634143166503e-001
      4.6899825254570378e-003 8.7534842970879712e-002
      -4.6261133542403982e-001 -3.0851741979964437e-001
      6.6689960111267323e-003 -3.6761011092139868e-002
      2.4294586539774463e-001 -7.4409435283679146e-002
      -3.5068058563253884e-001 2.3798300762167823e-001
      -1.6492115633509510e-001 1.9072300529512459e-001
      -1.5440775952195898e-001 -4.7422058737115892e-002
      -3.3779864076743028e-002 5.0873739707901551e-002
      3.0121682395542532e-001 -1.4394469362295767e-001
      -5.8142633305491265e-001 3.4549383287100804e-002
      1.9164814923617604e-001 1.2934173012354747e-001
      7.8111043237690622e-002 -1.9537224776511031e-001
      1.9970056129048844e-002 2.2420373480501318e-001
      4.9177541136687507e-002 1.0800745401942731e-001
      -2.5246442418742729e-002 -1.3083542816624988e-001
      -2.6492113905064302e-002 -4.8773194506512199e-002
      -7.7370195432348621e-001 -2.3584800108016751e-001
      1.5493033416095467e-001 -9.9520619576467864e-002
      -1.3407289712917628e-001 1.7950329357763523e-001
      -9.9989256784490568e-002 -2.8903177757844553e-002
      3.0394492588907973e-002 1.2180394985449136e-001
      -5.2331292470778050e-002 -1.0847791095039407e-001
      3.0513360739575636e-003 4.3832178565673188e-003
      -1.0248208426824687e-001 1.2243475693624846e-001
      -4.4429135588280494e-001 5.0732913172807523e-002
      5.5104221191764835e-002 5.4118186794628736e-002
      -1.7358275536637276e-002 -8.1495226877728970e-003
      -8.9843792435940276e-002 7.8921531129691427e-002
      9.4790755171136457e-002 -6.0925108266099919e-002
      -1.9471265023197087e-001 5.4438602223495017e-002
      -9.7714433761067920e-002 1.1307291149172392e-001
      2.5949230570761778e-001 -3.7111828770068189e-001
      2.2708485312370483e-001 3.8338832322884436e-001
      2.8584315713228593e-002 1.7860788867783658e-001
      -1.0672432639869722e-001 4.7857036587002043e-002
      3.3806062840245836e-002 1.3727473838967305e-001
      -4.7291521613279694e-002 -2.1219973404400176e-002
      -2.3380840003053401e-002 7.2312862689262833e-002
      -6.4959371707650287e-002 1.3347276982605500e-002
      -5.6201799609693914e-001 -2.0045712588387801e-001
      -1.2607137057507070e-001 1.9578468245248265e-001
      6.3869364438936774e-002 -9.3493793584308565e-002
      -2.2396381654678249e-002 3.0863496379364330e-001
      -8.4577385620236700e-002 5.0424893948752714e-002
      -6.8299554630454617e-002 9.1779325587293445e-002
      -9.6478909530466367e-002 -7.0195267784612745e-003
      9.5636963390271246e-001 -1.3575119729295829e-001
      2.7199907504396631e-001 2.6510695989241662e-001
      2.3967584164868333e-001 3.9805679487396023e-002
      -1.1690053708358369e-001 5.6155045109953984e-002
      5.2567501657344251e-002 -1.2220467180359147e-001
      3.4432610026191510e-002 -1.9991287789809828e-001
      -3.3573897892494264e-002 4.5192815221127405e-002
      2.3026018208062188e-002 5.2015924059068505e-002
      -4.2574255497079211e-001 -1.4016559855278804e-001
      2.9291535220131676e-004 2.8040853074561772e-001
      1.1376477467034225e-001 -8.3848839338694844e-002
      -7.3275821785780959e-002 1.4145714718908473e-001
      4.2558666915464810e-002 9.4807822751942189e-002
      -1.2893701084141071e-001 1.2153833221044649e-001
      4.4262777524359663e-002 -8.2294735145708509e-002
      1.3817266230691077e+000 1.4371968734419013e-001
      1.8075454507678157e-001 1.5540848609881863e-001
      3.2396271393742036e-002 -3.8614285378201184e-002
      -2.7966217347634231e-001 -1.2115836173756070e-002
      3.8618230173457051e-002 5.0637259831891199e-002
      -7.4517239662834051e-002 -1.5469480742245545e-001
      1.0879600995144038e-001 3.5717904820462984e-002
      -5.5979836692345290e-002 3.4843770151474752e-003
      -2.2283032286979379e-002 1.7222610018503472e-002
      2.5317578000962543e-002 4.3388527988628363e-002
      -3.6569504857413400e-002 -1.3767009794591950e-001
      -1.1223167415889615e-001 2.2874890377501378e-001
      5.1868082162182333e-002 -5.1000993763989637e-002
      -1.2519325142160379e-001 9.9354236062592707e-002
      2.6171651524034154e-002 4.8880815060856196e-002
      2.6665089612279633e+000 2.3837320700665066e-001
      1.9745153089181924e-001 -6.4612427272224618e-002
      -1.3101935846324103e-001 -1.2319620536653285e-001
      9.0764336008225255e-002 -1.6262726928268062e-001
      -3.3332978446117836e-002 5.9216468988708026e-002
      -2.1573320546680802e-001 1.2900881432409289e-001
      1.2966662160362022e-001 -1.3163000870958100e-001
      -1.4084291736483762e-001 2.4428320648531732e-001
      7.3203276012075214e-002 2.3805363665638882e-001
      6.0587965292960455e-002 -2.1059614707838378e-001
      -4.6708476311881969e-001 -8.7292496088510488e-002
      -2.5051277950338696e-001 -1.0375924372634907e-001
      2.2360966471019678e-001 -1.9846588738840226e-001
      8.3147631000788924e-002 -3.0674256068037673e-002
      -5.0891130999101891e-002 2.0105385462262879e-001
      3.2589877003292247e+000 1.0089386662188222e-001
      1.7235938416127003e-001 -8.1817768952003794e-002
      -2.8939824814583387e-001 -4.7202744236207461e-002
      3.3283563724680026e-001 -1.9546858419005819e-001
      7.3469448869323906e-003 1.4760314050035087e-001
      -7.4354429504489186e-002 1.9037752119559162e-001
      9.3439236985986246e-002 1.0039932189097783e-001
      -4.2358348457571482e-001 3.4972576299754798e-001
      3.2079569405260067e-001 3.7079944870487458e-001
      8.4936279992716870e-002 -1.8070612665281308e-001
      -4.5971405853868891e-001 -2.1504114818208678e-001
      -2.5522014841959140e-001 -2.4629537070679547e-001
      2.8232431235681227e-001 -2.1116735991570112e-001
      1.9163102337748747e-002 -1.5718821351565118e-001
      -8.8278535401544490e-003 1.0568230045359965e-001
      2.7725372741885823e+000 1.5723754644904345e-001
      -3.0560510006603130e-002 -1.7850776636512622e-001
      -2.1749866350277114e-001 -1.4865341050695763e-001
      3.0342363342887563e-001 -2.4108005564732532e-001
      -2.0306113286814712e-001 -1.9696545509446525e-001
      2.7527875334611766e-002 -9.8323360928280520e-002
      -9.0407679321307527e-002 8.8160053994222998e-002
      -2.5861140672889282e-001 1.6654514268858031e-001
      1.3549064163156774e-001 4.6242689107000456e-001
      -5.4224268602634768e-002 -1.1106040452828751e-002
      -2.8507280241582256e-001 -1.3516083464311407e-001
      -1.3718699186520855e-001 -1.9085265030184417e-001
      1.8333518861730189e-001 -5.7750796819130860e-002
      1.9971560742996639e-001 -9.5004812853386994e-002
      6.9013998065319715e-002 1.7793402174845388e-003
      6.7106489630307464e-001 2.7293922142889704e-001
      -1.1858588858893418e-001 -2.4998133213758705e-001
      -2.2285993247806907e-001 -7.6217784057513505e-002
      1.7419522735933124e-001 -1.6483217714448323e-001
      -1.2046367364122737e-001 -7.7258460548313104e-002
      5.5463186702784543e-002 -1.0122489577835754e-001
      -1.7457209536622523e-001 -7.2859377060828512e-002
      -1.6364029463003166e-001 5.2309956779424259e-002
      2.5830959031167600e-001 3.2187605976074463e-001
      1.8911769040349174e-004 -4.5569354929493919e-002
      -1.9352376858633857e-001 -4.6282758466902982e-002
      -2.0516046349852798e-001 -3.5187864558632248e-001
      1.7656584588724519e-001 4.2555928919731072e-003
      2.5213798624602252e-001 -1.8235509699378200e-001
      -1.8275985584527632e-001 2.0178414104874396e-002
      -1.2489203191231533e+000 8.3797963517068280e-002
      -7.7779774499113913e-002 -8.0789536154278738e-002
      -2.3243375327496935e-001 -3.1174063188409418e-002
      1.5630739991690396e-001 -1.2280129399372550e-001
      6.8755555879978961e-002 -1.4592295251295520e-001
      1.3283468204606891e-001 -1.3528688359919799e-001
      -2.5460739977531738e-001 -2.1951494334311333e-001
      -1.4743628870986678e-001 1.5730622685139303e-001
      1.7990016929602703e-001 -3.1220347685399438e-002
      -1.8098182590231932e-001 7.4834645424967247e-002
      -1.6043814239963963e-001 3.0669027944332891e-002
      -7.2625125553585426e-002 -1.6499054445359920e-001
      -1.5198704353184736e-001 -2.0864447121684285e-002
      1.2176283415083544e-001 -1.7488231426654458e-001
      9.9128409573274560e-003 -1.0984740828582575e-001
      -2.8646348418616991e+000 1.2648748088734396e-001
      -3.8312772466501124e-002 -9.9769648541092548e-002
      -2.7705528600224644e-002 3.9594290961629884e-002
      1.7924471086737193e-001 -1.2546890297571872e-001
      3.7725151546495105e-002 -1.4545372179609203e-001
      7.4570661851815628e-002 -4.9528146093146368e-002
      -1.1191046008166826e-001 -2.8997217111047691e-001
      5.8111501627092499e-002 1.4088749777710027e-001
      -3.9447671113458293e-003 -2.7330477436360297e-002
      -1.7154101230720420e-001 5.4162173466940786e-002
      -1.7951588274453292e-001 1.4751553645210652e-003
      -5.9055902939041748e-002 -1.9934356676690812e-001
      -2.0819326624426449e-001 1.7526587131774237e-002
      1.1032592952405726e-002 -2.6792854120521709e-001
      6.3733861445083320e-002 -6.4385901381156560e-002
      -2.9162602422785500e+000 1.5421691121594217e-001
      -1.4149984341626728e-001 -9.3467581091838059e-002
      3.7595222786887782e-002 -9.9280989612103548e-002
      6.9992613136355630e-002 -1.0614649211819802e-001
      5.2284511992693706e-004 6.7030544259708488e-002
      -7.0130786598593078e-002 1.3822214352641464e-002
      -1.5079153102464249e-002 -1.5694104046495927e-001
      8.1565371980139467e-002 1.5275229870821144e-001
      -1.0059963318540933e-002 -8.8436144406149483e-002
      -2.2819783422084218e-002 -7.3276888734791101e-002
      -1.7976257091457196e-001 -9.3307981606911335e-003
      -6.5875850604622782e-002 -2.8149246486262595e-002
      -3.9321206538428924e-002 5.2400851149116849e-002
      4.9249753735921810e-002 -2.5941600537071074e-001
      -1.9863084369576223e-002 -8.5049817705094607e-002
      -1.9446138951521681e+000 9.5551885303042511e-002
      -7.4754563400874399e-002 9.7440097163015230e-003
      1.9251779482608497e-001 -1.6026793083855091e-003
      4.3070455188095748e-002 -3.8456290827895361e-002
      1.0830218388684445e-002 -6.3390552191596977e-002
      3.3950888113274590e-002 6.5603518899898364e-002
      -8.0087179829983951e-002 -1.8639817597737784e-001
      1.8110287337477401e-001 1.0808236242344303e-001
      -8.8629802633662255e-002 -1.1529347207516800e-001
      -3.5998275982032341e-002 1.5827042945954037e-002
      -5.5321090998839452e-002 2.6221617827306639e-002
      -9.4193044587474115e-002 -1.1690275477233175e-001
      1.5757706026520494e-002 1.5973438273791588e-001
      -5.3197915015867764e-002 -1.2605476192010973e-001
      3.9371614548769140e-002 1.0269378260840231e-001
      -1.3306795936989055e+000 1.1776405869725946e-001
      -1.2236635760957984e-001 5.9964279449633562e-003
      2.7495172145381458e-001 -1.0608376450154680e-001
      -2.6703677989054892e-002 6.1540189495327156e-002
      9.4719791376754753e-003 -1.4848702857411469e-001
      9.8163738528754235e-002 5.5600678510049774e-002
      -1.3888311421465727e-001 -2.4993381235135934e-002
      2.5014696413844745e-001 7.2689695978936764e-002
      -2.0015763069549639e-001 -1.0423621879635026e-001
      -7.1286588494461609e-002 -1.9179801816176620e-001
      9.8626496095959946e-003 5.1027702427044748e-002
      9.5631435711575716e-002 1.1509206282881158e-001
      -3.5261885521528674e-002 2.5955284955878055e-001
      6.7469242957927764e-002 -3.8982372742256848e-002
      -4.0719555470518226e-002 9.0098469628314845e-002
      -2.0277709877629611e+000 1.8581305204672766e-001
      -9.0217465558802848e-002 -1.2697637919897070e-001
      7.8437121800342180e-001 -3.4655278611241647e-001
      -1.3621504759104794e-001 3.7611907263862093e-001
      -3.0741179463172585e-001 -1.8483560091354587e-001
      -1.8639815196890221e-003 4.2049490772762300e-002
      3.4261260975929707e-002 7.0786683153218247e-002
      4.4291264496121496e-001 -2.9084812383221792e-001
      -2.2797518170243813e-001 -2.4483634130170082e-001
      -4.0096628598992844e-002 -1.8505628927908854e-002
      2.1116161425245636e-001 -8.6102120786297850e-002
      1.6575290383509406e-001 1.9940539389875744e-001
      -3.9822383279394524e-002 2.4363719407908027e-001
      3.8078932238576571e-002 -4.7401438189278514e-002
      2.3486452013974445e-002 1.3621762315607011e-001
      -9.1036753554680327e-001 2.3264328989163696e-001
      -1.5217484621003133e-001 -9.8900667764554390e-002
      5.4074254901045238e-001 -4.0597500813722565e-001
      1.8629046356945050e-002 2.5201378522706280e-001
      -1.0211650300425618e-001 3.2701229438658060e-002
      -1.5223219880872982e-001 2.0388262642224592e-001
      2.4377617874134973e-002 -2.1436661696631998e-001
      4.2950909304962509e-001 -9.2764604826615318e-002
      -2.4499674261726570e-001 9.3174449824898350e-002
      1.1087758023693019e-002 -1.2498108896636326e-001
      -1.4822129368289088e-002 -1.3230903262947236e-001
      5.7970208652451817e-002 -2.1708294425313728e-002
      -5.0960345465101115e-002 2.5306416220456773e-001
      4.2395292975593063e-001 6.4136895581175662e-002
      -8.5058388874936039e-002 1.4015757677251228e-002
      -1.0469004566805566e+000 1.1652070770852276e-001
      6.1165235784707457e-002 2.4397461790727965e-001
      -1.6602290587279270e-001 -2.3975099920223797e-001
      3.0172630354367613e-001 -3.4078241210368829e-002
      -7.1656332436115272e-002 -5.9218657608479830e-002
      -1.5949244989898745e-001 2.1305254358731157e-001
      3.3077234628637797e-001 -1.9315502531913428e-001
      5.2191919307988555e-002 9.3398515989471007e-002
      7.3215058788172870e-003 8.5317316742802671e-002
      1.3825919278914753e-001 1.9738283066606438e-001
      -3.7048340341544939e-001 -5.9845324782934819e-002
      -1.2707209699370153e-001 -1.7455683182269509e-003
      -3.2668244756839694e-003 -6.2761656019881665e-002
      -2.3218735671697449e-001 -1.6290447916252770e-001
      7.8169214725371167e-002 -1.9930675989665253e-001
      2.3693430223955922e+000 -2.0834742728661579e-001
      -1.7074778368958468e-001 -4.3430881892446052e-002
      4.4560475960974488e-001 -3.8813583061017848e-001
      -1.1009197519362450e-001 1.1170736324001604e-001
      1.9245956081526433e-002 -2.3759376425889792e-001
      1.9184607676147736e-001 -9.6130775598857965e-002
      1.6217299248850578e-003 1.6199726271415296e-001
      2.4546024013870169e-001 -1.7545769369054354e-001
      5.1424398619751531e-002 -1.4462395107679668e-001
      -1.3549625794707379e-001 -9.6091555761813136e-002
      2.9495578192139033e-001 2.6013599877174509e-001
      -8.7753611664804512e-002 -5.1384125119752211e-001
      4.4033793518388598e-002 5.1477922452917449e-002
      -2.1659732506654775e-001 -1.9599197472768234e-001
      3.9106220988945539e-001 4.2749703682537560e-001
      2.8167515825201321e+000 -6.1961415436898593e-002
      -1.8820927917540059e-001 1.2026871399890879e-001
      6.3940822940010322e-001 -5.8461772784020483e-001
      1.1823817362041338e-001 2.1322501782627795e-001
      -6.1767622775964280e-002 3.8611401733980040e-002
      1.2128531069601628e-001 1.1506362335172562e-001
      5.6535403704415871e-002 1.9399494494442659e-001
      2.9458280747293158e-001 -1.4104371435388180e-001
      7.0745936082499170e-002 -2.8187781774333320e-001
      -1.3402324602529697e-001 1.9871536310204327e-001
      8.4213291552435440e-002 5.0251356140336469e-002
      1.4367430239181853e-001 -3.0428243105078195e-001
      -5.6530820094645481e-002 9.1452197037801899e-003
      -1.4719089597631105e-001 -2.9713733161005684e-001
      4.0817256291888926e-001 3.7750551799535054e-001
      2.6990382998218423e+000 -1.6557178076284526e-001
      5.8596530960514259e-002 1.3154868512293674e-001
      7.5874606739277706e-002 -4.3505986969242005e-001
      -1.6707314521045374e-001 1.3669473465388288e-001
      2.2722467614115782e-001 1.4824548262591991e-001
      -7.2095361263446664e-002 1.8323443814135576e-001
      5.7236840365383762e-002 -3.5787810015477939e-001
      -7.8274500909609371e-002 6.6853655968183720e-003
      1.8248077707020829e-001 -2.4784830063805832e-001
      1.4522618901674791e-002 3.0361357585252652e-001
      1.1716531485211018e-001 5.6090629136633097e-002
      2.5986704755907575e-002 -2.5614813634165079e-001
      5.4819367599584209e-002 -4.7239157162488013e-002
      -2.3925434473827192e-001 -2.4933559086147355e-001
      1.7961154662648388e-001 1.1767629534942242e-001
      2.2713639312751899e+000 -2.1037503782399411e-001
      1.0547004990981708e-001 2.9033101947940543e-001
      1.0626304320321087e-001 1.9813379378977508e-002
      -2.7165459206726295e-001 2.7776331808650534e-001
      1.3314958414468489e-002 2.6394785333849324e-001
      -3.3336637213459051e-002 1.9395149991358376e-001
      -1.9531317959787070e-001 -1.1024249553623280e-001
      1.1156820769727366e-001 -9.2362608420344064e-002
      -1.4849753712242036e-001 -2.3685027979420450e-001
      2.2064043189089354e-002 4.2865289961643205e-001
      2.6547942548572789e-001 1.6757051387488192e-001
      1.9153929310464532e-001 2.7920811260513217e-001
      -1.4598419097152732e-001 6.7611448010842568e-002
      1.0726351873941499e-001 9.3887862772372099e-002
      -1.4469259470978041e-001 -1.2599858746421994e-002
      -2.1354827032769358e-001 -2.8257498013758464e-001
      1.8890869680858677e-001 8.5765292468283266e-002
      -1.9879461077631841e-001 2.9883826794396279e-001
      -6.2129217706285850e-002 1.8243510976236205e-001
      2.0275586878332241e-001 -1.4060072269496127e-001
      1.3753092636908348e-001 -7.8024906482821718e-002
      6.2481306866137114e-002 -2.8034769189612008e-001
      -1.2679809374772402e-001 1.5166987597893350e-001
      6.3111935198805298e-003 -8.0683143426034540e-002
      1.3302340739261118e-001 2.6290374532663896e-001
      3.2144598890219711e-001 3.2919399116678028e-001
      5.7820866803529644e-002 2.1011653083641427e-001
      6.4771975715029780e-004 2.8372936872253278e-002
      -2.6889524258194974e-001 -9.8065938164100155e-002
      -1.1210106115961389e-001 -1.2089044258155461e-001
      -1.6534368670623859e-002 -2.9502912383736773e-001
      4.6593903264623432e-001 1.4162657614748558e-001
      -1.5317684965851502e-001 3.5744981292460543e-001
      -2.0211825568304040e-001 8.6458511089957640e-002
      6.2420973103091498e-002 -1.9317265878005996e-001
      7.4086512965184592e-002 -1.0588182306011851e-001
      -5.2028796243851427e-002 -3.8395317480481689e-001
      -1.9954983565068793e-001 1.7485469464364356e-001
      -5.8650435872520251e-002 -1.4874252546002789e-001
      -2.3243035481251939e-003 2.8503017048756130e-001
      3.2988481688103749e-001 2.2431813744014462e-001
      -1.2416368426423944e-002 1.9667634535288284e-001
      -1.2655883732045023e-001 1.0569448868568232e-001
      1.2808976445448787e-002 2.7122763498526836e-002
      -2.6551517535930030e-001 -8.8653897544166166e-002
      -5.4343907121675805e-001 -2.4157919226352983e-001
      3.8279115242580258e-001 -1.9120760637335039e-002
      -2.4719860579639311e-001 3.0744680333561308e-001
      -1.2210372298732136e-001 -6.6412281381517391e-002
      1.1099350697120484e-001 -5.0884581533459726e-002
      4.0171771954854947e-002 -3.6674495698790346e-002
      2.7320111432831168e-002 -2.9520632254484347e-001
      -2.4725509791777278e-001 2.7466158307933963e-001
      5.6217594550899135e-002 4.3639563553080359e-002
      7.4256229405191831e-002 1.2225292574676190e-001
      2.1968992184916783e-001 9.4315365584699759e-002
      -2.0873186516353920e-001 1.6391054500650779e-001
      -8.1402763129756611e-002 -6.4237826835728859e-002
      -5.9489790962038124e-002 -4.2477619508664320e-002
      -2.2642358389454370e-001 -1.6433461655058346e-001
      -3.3303491277743935e-001 -1.7203777805284087e-001
      2.3497442114783246e-001 -1.5598569321541206e-001
      -2.4127401417642383e-001 2.4889515381840122e-001
      -2.2386329834101376e-001 -1.5317486519697143e-001
      6.7493861922014786e-002 2.4307483121476892e-001
      -1.6366912605569819e-001 1.4374991218603922e-001
      2.5689268893653183e-001 -1.7827651513496517e-001
      6.9789433280062874e-002 4.1617810598156613e-001
      1.1879278552311348e-001 2.6027064868597244e-001
      1.4180046541130892e-001 -1.1447248109417466e-001
      9.9388236744809469e-002 -8.1993805068265507e-002
      -2.4763696394587209e-001 1.2497058151463820e-001
      2.0346146022261660e-001 -1.0275322458140503e-001
      -5.0307618294392779e-002 -9.5810110536995785e-002
      -1.5790845724778216e-001 2.3575314650674545e-002
      8.3400834103823662e-001 -9.6107907308862567e-002
      1.5244371661892470e-001 5.4651187671576054e-003
      -3.0288152166542670e-001 6.8617996591739561e-002
      3.0759398454508952e-001 -3.0973006165750433e-001
      7.2643351237929296e-002 -2.6491443453155665e-003
      8.1719703872211155e-002 4.7100515668597120e-001
      2.5187552495773385e-001 -2.4689219966480036e-001
      -1.0455686395989860e-001 7.3129675059407573e-001
      1.9004031941988589e-001 1.4497373466256822e-001
      -1.4856080549818923e-001 -2.0314046288963752e-001
      -3.3610118652164533e-001 1.5213986550762174e-001
      -2.6938250608432845e-001 1.5246887671332349e-001
      2.1718051208571509e-001 -2.8420266838491426e-001
      -1.1966030950535855e-001 -2.6818094039162266e-001
      -1.9794955939771786e-001 2.3900805970819828e-002
      1.7261445466939995e+000 3.8869336752953396e-003
      4.6930585755690264e-002 -2.5312392693845671e-002
      -4.7997631119960577e-001 9.1924708328780150e-002
      4.5517496098191507e-001 -3.4744556317232234e-001
      5.5747076076040444e-002 -1.7849920575747003e-001
      -5.7279670276073280e-002 3.7275072968970752e-001
      2.6414402358182826e-001 -1.7693231707052010e-001
      -2.9570285874767666e-001 4.2983377179646376e-001
      4.9377993927522590e-001 -3.7515420903702877e-002
      -2.0442981658758336e-001 -3.1958119013637598e-001
      -3.4154358259602347e-001 5.3017194570867676e-002
      -2.2524207212621941e-001 -3.1922987873779347e-002
      4.2986324435419149e-001 -3.7961380224727398e-001
      -2.8640180233783508e-001 -4.0805752485206187e-001
      -1.4577085347871760e-001 2.5032994567014533e-001
      1.6762794874863178e+000 7.8340931359218227e-002
      -1.3323268160914675e-001 -9.8944474124709081e-002
      -1.0272515136177581e-002 -1.3470443829375614e-001
      2.1052407042109100e-001 -2.5428651763909632e-001
      -7.8525665615506030e-002 -1.2945203639576000e-001
      -1.7106671361621603e-001 -1.4537992265899195e-002
      -6.0290031758173893e-002 2.3018794796396933e-002
      -6.9808232431345069e-002 -6.0018321441048197e-002
      2.2790470979709762e-001 -1.4007286343927980e-001
      -2.8717951414706278e-001 -1.9853123157106389e-001
      -2.6362838391470228e-001 -1.4646329853981679e-001
      -4.3356294907547978e-002 1.7047788634504890e-001
      3.7432740308502954e-001 -4.6246977829584160e-002
      7.1778577942682567e-002 -7.2046026148460424e-002
      -2.6327125064592222e-001 -1.4671300874374656e-002
      -7.0051501483236256e-001 1.5596592617412416e-001
      -1.7320224456704292e-001 -1.2283071869501512e-001
      -5.2616870034894674e-002 -2.2110609881287421e-002
      5.8782577575660168e-002 -1.9589846467073888e-001
      1.0522459643472715e-001 5.8235076426779872e-002
      -5.1145204759730140e-002 -1.4986995829820235e-001
      -6.2280304033953890e-002 1.2697504784962216e-001
      -6.5798522288126784e-002 -2.5159658055391665e-001
      2.5215895646585768e-001 -6.4581006377394973e-002
      -1.3929146787077890e-001 -3.3828564692086804e-001
      -3.3292093645520054e-001 -7.2885623693387649e-002
      -9.9593206828234734e-002 -1.1158301044651171e-001
      4.5025447002555768e-001 3.0577211060115475e-002
      1.5153723309518125e-001 1.2250034056310871e-001
      -2.2811068747682900e-001 -1.8011244295477977e-001
      -2.3507485536378625e+000 2.8046121495651671e-001
      -5.1778732416637066e-002 -9.4452917483105680e-004
      -6.3021084466346855e-002 -5.6718527434061909e-002
      1.6892662604058462e-001 -2.3251244064363685e-001
      2.2507194175357526e-001 1.1871377719408746e-001
      8.0645290222294094e-002 -1.3981066575326986e-001
      -3.1886363838258706e-002 1.3778206007300167e-001
      -1.4524734736164527e-001 -1.5754948638164351e-001
      1.9601545367103226e-001 -2.7973453037381868e-001
      -2.0788815400417926e-001 -1.1582468169667984e-001
      -3.9525363819301601e-001 6.5044445141289597e-002
      -8.8073486020463512e-002 -8.7777226990461740e-002
      1.0302902634929086e-001 -1.1450502327316521e-001
      1.2291576836865756e-001 -8.0014049246302288e-002
      -8.1789633203723872e-002 -2.1372213649508273e-001
      -3.0367284801722034e+000 3.3351167441946206e-001
      -1.8968120451121281e-002 1.7201545513392810e-001
      -3.4836344942586622e-001 2.1730785499385973e-002
      3.7508417028091434e-001 -2.2675151160118656e-001
      2.0582850997940036e-001 8.2854276507881991e-002
      1.8345495633787737e-001 6.8132137332173673e-002
      -3.5598590975666887e-002 1.7643828511158360e-001
      -1.9630047905492420e-001 -1.8082769472522523e-002
      2.3812777207489033e-001 -2.4638179048849806e-001
      -4.1247278166664919e-001 -1.4837536564821011e-001
      -3.5717486871382836e-001 1.6956394270752975e-002
      -2.4071124059386406e-001 -9.4200458513285609e-002
      2.0959134323138590e-002 -7.9017926181203388e-002
      2.3719194384509093e-001 1.0561893923899860e-002
      -1.1603605422565187e-001 8.2092306901891732e-002
      -3.3542871681931752e+000 3.9729451923407333e-001
      6.6810787006564967e-002 2.1913818792890558e-001
      -1.4344843486196357e-001 1.1908227604290716e-001
      3.9913605864325852e-001 -1.7604406309158455e-001
      8.8954260669371912e-002 -8.8311205074037086e-002
      2.0496444378942885e-001 1.8872926714788221e-001
      3.9688916344644200e-002 -1.3021917842481908e-002
      -1.8025276795435619e-001 -8.9600686304111943e-002
      2.4580773992780100e-001 -2.2462948459408519e-001
      -3.5295816938274943e-001 -1.8914708394675972e-001
      -2.7976121932944870e-001 1.1758249466634607e-001
      -1.6323521567363444e-001 -1.8205175722630348e-001
      3.6698480718362083e-003 -1.6888116546506748e-002
      1.2013700529176986e-001 4.5225939825704130e-002
      4.3547409830331084e-002 1.7179102486053152e-001
      -3.5477083647310415e+000 3.3179694903157186e-001
      -9.4500950689228300e-002 1.9064637980284388e-001
      -2.3845118761798553e-001 -1.5701456918610326e-002
      4.9017719685386729e-001 -2.1836323116705000e-001
      9.0872542339713966e-002 -1.6284174589603656e-001
      9.5321475732593766e-002 -1.1475029204120288e-002
      3.8838125879977786e-002 3.7787721118243620e-002
      -2.1271471296237199e-001 -6.4229126645769422e-002
      1.8348072702316373e-001 1.8752491556498577e-001
      -3.7541103713677755e-002 -3.2667495535909508e-001
      -3.2104935318437994e-001 1.5046166976472236e-001
      -6.8343666477516885e-002 -2.7775278137855480e-001
      8.9987369962714017e-002 1.3622377343881449e-002
      -5.9580940150764782e-002 -1.0713144241512654e-001
      1.4795014892381123e-001 1.5255369596545876e-001
      -1.6019269305034873e+000 2.1186069343688209e-003
      -2.1675678325044645e-001 5.8377407462444041e-002
      3.0491381006845952e-001 2.3741546228339187e-002
      5.0285100018622783e-002 9.5276832396238811e-002
      -1.3890182114969007e-001 5.0969753872646344e-002
      -3.3898991549541242e-002 -5.2693211072075349e-002
      1.0620038815756187e-001 3.4124079758169085e-001
      1.3132403362315911e-001 -3.9513007246423854e-001
      -2.2834885863855781e-001 3.6604914501271035e-001
      8.9659387547294189e-002 -1.9582133612110686e-001
      -9.2023168415781106e-002 -3.0420770370483217e-002
      2.3236695097923810e-001 -6.2419519062886330e-004
      8.3363269048775973e-002 3.3492071867743001e-001
      3.3361353823451462e-001 2.2909930628296549e-002
      -5.0353849870058948e-002 9.4214073383420027e-002
      -1.6836104575852744e+000 8.5824723529052974e-002
      -1.9480985791982638e-001 -1.2291773068456426e-001
      2.2484234148963164e-001 -1.4122264554901431e-001
      -1.8335644649156194e-001 1.1241840777853773e-001
      -3.9514731824412497e-001 8.5411345421103242e-003
      -7.8274335975894047e-002 3.8953317725391928e-002
      8.4147744544461084e-002 1.8050699165898781e-001
      1.7329039842860414e-001 -3.3087606503288902e-001
      -1.5348399420922532e-001 1.2886337759814906e-001
      3.4238704115707991e-001 -1.4846201445896295e-001
      -2.9383976286057888e-002 -1.1938324090852126e-001
      1.8269661353531225e-001 4.8608679842691856e-002
      1.3274676487448725e-001 2.1342321587707441e-001
      2.6107519237176130e-001 1.3078502872875297e-001
      3.8858779884948402e-002 2.0920761648908676e-001
      -2.4570167890495402e+000 8.0713428877024054e-002
      -2.3149799500816351e-001 -5.5420798903507573e-001
      3.8449849874254316e-001 -2.4485726718544984e-001
      -1.4957546492570323e-002 2.9014393672801359e-001
      -4.7025386392256030e-001 3.0174322225603421e-002
      1.5583575596040694e-001 1.6633763090745374e-001
      2.1860338648743224e-001 1.6401423599446613e-001
      4.1979897533786081e-001 -3.0441435687365670e-001
      -2.6155776038641387e-001 4.4031505898245954e-001
      3.3192550038852842e-001 1.2236025406566835e-002
      -2.8672828027847850e-002 -1.6452877061301319e-001
      2.5415530951911874e-001 -7.8684363829647358e-002
      -5.0459877164663713e-002 2.7009926677127782e-001
      2.5566464331401834e-001 7.4057699345736985e-002
      9.8371996149230201e-002 2.2333974537605880e-001
      -1.2332742011856115e+000 1.4061377719073689e-001
      5.2356213702276465e-002 -4.4057387440990614e-001
      6.6364296476864826e-001 -5.0283852971780070e-002
      -5.0268785386937062e-002 3.0439824074394567e-001
      -4.2491050822391624e-001 2.3827012766978453e-001
      -1.6517324740018133e-002 3.5019835087291263e-003
      2.8935344169271121e-001 1.5888496366101268e-001
      4.6139024824503594e-001 -2.0012045441605622e-001
      -2.1192467400541398e-001 3.4124471808414253e-001
      3.3339533414356515e-001 -3.7816703403551442e-002
      -3.5735973591620528e-002 -2.8930530541480148e-001
      1.0483288986584728e-001 1.5141528711037031e-002
      -1.9059206960134700e-002 2.8582703471080195e-001
      4.3641147949976394e-001 7.2667589480801376e-002
      5.3882894936491239e-002 1.6233001013927206e-001
      3.1720719569904712e+000 1.7207019796167733e-001
      3.9596519032814449e-002 2.4458462593920155e-001
      6.5930195083162779e-001 -6.6244973462853785e-001
      1.4573524812696473e-001 1.0789373668304696e-001
      5.8306911089822583e-002 -3.0392243151552401e-001
      1.4655180541769075e-001 -3.2726185616257064e-002
      1.0690202809653800e-001 2.4500202779402058e-001
      2.7430567570805853e-001 -2.2461073392504813e-001
      1.6536800797812404e-001 -4.5374939082890969e-001
      -1.7822952605329051e-001 -9.3478222153938070e-002
      1.2881548946543156e-001 1.6011018361791668e-001
      -2.2436036211629972e-003 -5.5890351407927608e-001
      -1.3227528425927698e-002 1.6652482602906957e-001
      -3.9279583515329730e-002 -2.7129498558499798e-001
      4.7557575171058641e-001 3.3590934462235661e-001
      4.1265348471849075e+000 4.5488019288348908e-001
      -6.0651587821394806e-002 2.7058560911175777e-001
      5.7652194933653811e-001 -6.2468243492761477e-001
      3.7370296877552250e-001 2.2716177787878915e-002
      2.3233850564274617e-002 -2.1510787693014086e-001
      2.0854028302521641e-001 2.4226966973976508e-001
      1.7583782025866027e-001 9.9979031101071633e-002
      9.9377721972755018e-002 -3.6651525371508877e-002
      3.6774390919189065e-001 -3.1828133936881980e-001
      -2.2441223823405637e-001 -2.4677438321889473e-002
      -4.6454779462022679e-002 1.7000922898663037e-001
      -3.6033284174215564e-002 -8.7625656769706239e-001
      2.3245972492612824e-001 -1.3937425205716433e-001
      -2.0337701294593147e-001 -5.1428624236674636e-001
      6.0475454133784978e-001 4.1737216071110372e-001
      2.1145313141248048e+000 4.0756541292344350e-001
      -4.8259817360521762e-002 1.6694994542781494e-001
      2.0421694291770329e-001 -4.3294923811538338e-001
      2.1259850253728385e-001 1.1722761589113817e-002
      1.1544378485183401e-001 -1.5914565335067862e-001
      6.9273427150799649e-002 2.2059053876355408e-001
      1.7834851550866476e-002 -1.5490852994295698e-001
      8.6735173642887686e-002 1.4951932193835209e-002
      3.0439213080403654e-001 2.2474862418218534e-002
      -5.6507939361192049e-002 -1.8513956963629510e-001
      -1.1791782009734386e-001 5.1200227829201445e-002
      -9.2577613372802250e-002 -4.3123121822595145e-001
      1.1354105309798614e-001 -2.2515039935609232e-001
      6.6410012076249655e-003 8.2208052566627055e-002
      3.0580009393914254e-001 1.7478660966496190e-001
      -3.3558559935356565e-002 3.9829680631131870e-001
      1.0279539355849000e-001 4.2074168233547188e-001
      -1.1987230924531149e-001 1.5659658482984298e-001
      2.2272484469481924e-001 -1.8846754644190603e-001
      2.2057440966467354e-001 -2.6480014744109985e-002
      1.7017868937752165e-001 2.0417517634759196e-002
      -5.1395310394703700e-002 -5.8986986986638207e-002
      -1.7970868310504473e-001 9.5956532877121109e-002
      2.6797844866612255e-002 1.4315970427775315e-001
      -1.1986779602938136e-001 -7.3619611145235742e-002
      -1.5287031310933666e-001 2.0470767304914789e-002
      -2.4212254517747664e-001 -2.3310247008862756e-001
      -9.2706998565480342e-003 -2.8221670684603717e-001
      -8.7282112442179080e-002 2.2611227924691207e-002
      2.9496571017110074e-001 7.7665877485467910e-002
      -2.2601549358187367e-002 3.2912232379280992e-001
      2.7167096762481752e-001 4.0132731618395279e-001
      -2.7044946147617904e-001 1.2282920804381742e-001
      6.1308151222854469e-002 -4.9744254424867261e-002
      1.3568655206012753e-001 -9.8943992538870054e-002
      2.1168595632307091e-001 -2.8240950826342429e-002
      -1.3016720756423805e-001 -2.0024182529197884e-001
      -3.0338958598341725e-001 4.1631225044894282e-001
      -8.5509887564666903e-002 9.0181418381919010e-002
      -1.8904185566256386e-002 -3.5563851656955281e-001
      1.8382814337195733e-001 -1.1665469899245495e-001
      -2.4789646510999080e-001 -1.3610424804168602e-003
      -6.0278097920404297e-002 -2.6583425322951548e-001
      -3.2597752476062114e-002 1.9358710982988206e-001
      6.8050829324165965e-002 -1.3427603999018395e-001
      -5.1185007571742624e-001 4.9307027098585088e-001
      5.5404165680475348e-001 3.6472056934869701e-001
      -6.0893196398684601e-001 3.5260295253212948e-001
      8.4831269558634737e-002 -8.7049918615410060e-002
      2.8403960479546841e-001 -2.0904796544918297e-001
      2.0921030958860101e-001 1.2710597394617762e-001
      1.4358174112324296e-001 -2.6495699978175480e-001
      -4.1106982441480594e-001 4.9228778303960363e-001
      1.4664826093847094e-001 -2.9539563223996190e-001
      -1.7519600040330995e-002 -1.7781248918101186e-001
      1.4332919386631293e-001 3.6840105205495986e-002
      -2.9570653542694175e-001 1.7609772795841011e-001
      -1.0368095724506018e-001 -3.2100914765875993e-001
      2.4759945498037284e-001 8.3162501375369610e-002
      1.4813802389171217e-002 -1.2159477158766360e-001
      -5.6198953889476322e-001 5.0026621666206761e-001
      5.2483468321287075e-001 5.2192545125291212e-001
      -4.3807014988402199e-001 4.2587461905116181e-001
      -7.0668557163573079e-002 -5.2858327097418813e-002
      2.9190810392995559e-001 -2.0741433325981229e-001
      5.8675498776478721e-002 9.8359618414019634e-002
      3.0261106652592632e-002 -2.5615471434150655e-001
      -3.4783614697166992e-001 4.3499835123039099e-001
      1.0668332609142987e-001 -4.6952825499110978e-001
      -2.0547011676983010e-001 -8.7827402335669394e-002
      2.2207415299196087e-001 4.4245228174027776e-002
      -2.7914731528186876e-001 2.6492758009022616e-001
      3.2124273902770445e-003 -2.3549732208937343e-001
      1.4526627685876201e-001 2.8056919111606765e-002
      -2.1413012695531974e-002 -2.0982945103354797e-001
      -1.5968820340044434e+000 3.0859746736708515e-001
      4.9568947671738856e-001 3.6939377231402892e-001
      -1.9927126838153625e-001 2.9898730961779912e-001
      -8.7877915280842128e-002 -2.5461855207763600e-002
      1.1124577037940125e-001 6.6679253048295681e-002
      -6.6761189392526399e-002 2.1947129662235315e-001
      2.3166670400249861e-001 -3.5155478976339471e-001
      -2.5410126508625913e-001 4.5016910824605999e-001
      7.4347291750372893e-004 -3.8659547740177447e-001
      -2.9937582735963378e-002 -2.7282643741246525e-002
      2.0613015526715839e-001 -3.3747222157586997e-003
      -2.7549710380249898e-001 2.5373737505762523e-001
      1.0199575585053886e-001 -1.8894132847808195e-001
      3.0694130906174063e-002 -8.0072340202131900e-002
      1.9478998060383923e-001 -2.1408776204002061e-001
      -7.6368255335159907e-001 2.6271653649045240e-001
      4.4217878177889530e-001 1.1508076537679943e-001
      -5.3882275698766890e-001 -1.6210929639904159e-001
      3.3930961617126132e-001 -1.7831634859123346e-001
      2.9630674286897496e-001 1.5092354262300944e-001
      -5.9418500220988088e-002 9.1723024877118653e-001
      -3.5845794893571106e-002 -2.0195386820572150e-001
      -3.6295688085645916e-001 5.6274164767186274e-001
      1.4626837410947313e-001 -3.1042622587958452e-001
      6.3649960828897054e-002 1.3688285944362819e-001
      -1.6318596728133286e-001 -8.1356412723585667e-002
      -2.5604414891387517e-001 2.6230545298438901e-001
      6.6738697224597340e-002 -5.9335712234598048e-001
      2.1087447773452503e-001 -2.6279137827232563e-001
      1.1016979452113247e-001 -3.6952572566079706e-001
      1.3898451511446892e+000 -1.7686106353205465e-002
      6.1024979676116663e-002 5.9117767476709292e-002
      -3.3068788664268067e-001 -2.2626875846837552e-001
      3.7803135242837521e-001 -3.9104721835744705e-001
      -3.5992753635730984e-002 6.3856370379132263e-002
      -1.5665089704820195e-001 6.1147121495624901e-001
      2.9983317123915672e-002 -1.5884867998396918e-002
      -1.1493018722321398e-001 2.4959124844964831e-001
      4.5731320297089983e-001 -2.8406903701415631e-001
      4.6624969888033621e-002 2.8989170330323233e-001
      -3.6263062819163799e-001 -2.3315041538357567e-001
      -2.3799823128817815e-001 2.3232763617200838e-001
      2.3858397279702612e-001 -4.5675979957597768e-001
      -1.3557943139943690e-001 -1.8552858033704575e-001
      4.1732353611518879e-003 -2.3236807133600620e-001
      2.1069430994322160e+000 -2.2282255068448300e-002
      -1.6410626450780039e-002 1.5474342224605117e-001
      -3.5806001198366078e-001 -2.1726413232943714e-001
      1.8467977988590087e-001 -4.3521208414580703e-001
      1.8748936059401503e-001 -8.3122196332555756e-002
      -1.8874510003650488e-001 -1.6571187366504012e-002
      1.1635767413794899e-002 -2.0179166350520455e-001
      -2.0607727097087147e-001 -3.7348903708577498e-002
      3.1166710041055501e-001 -6.4574769811705152e-002
      -3.5314199294041303e-002 2.0315651378296296e-001
      -1.1307378205076145e-001 -5.5733672472070700e-002
      -3.4054461016042292e-001 1.3365803451852359e-001
      3.2138439665478435e-001 -1.5642795043779653e-001
      -2.4272907147944438e-002 1.5438537385764022e-002
      -3.4804231994920376e-001 -5.3306732339358197e-002
      -4.8851252628363658e-002 2.8579601522679417e-002
      -4.9680926532379516e-002 1.0882571798862412e-001
      2.9664438064547469e-002 -1.5132712825605394e-002
      1.3695703597221343e-001 -3.0869471597406800e-001
      1.0267869406195354e-001 -1.5763580061289351e-002
      -8.8054756447382976e-002 -4.8360081102545839e-002
      2.3745854454082047e-001 -8.2782203948489813e-002
      -4.4735311708942897e-002 -2.8549224254098088e-001
      1.6561541029935617e-001 -2.8811045422733755e-001
      -1.9699689167315115e-001 -1.2042742589318506e-001
      -1.5990340556034870e-002 1.5097271806090298e-001
      -3.6182745171637082e-001 3.4915874249814037e-002
      2.1421462649933434e-001 3.4773489336894045e-002
      -2.5497580342269072e-001 7.5472191846233799e-002
      -2.2727821545264870e-001 1.3033656513941391e-001
      -4.5303125460950948e+000 2.9200961888948790e-001
      5.6007732093675837e-004 -1.7388357571878552e-001
      -5.1001938293416156e-002 -1.7108682853051371e-001
      1.7151446439476417e-001 -2.2744114210136587e-001
      1.6248995276561537e-001 -1.2770275595396843e-001
      2.7207508472289044e-001 1.3915275225811792e-002
      3.3074521783771149e-001 -1.8504915486108070e-001
      2.4572545012457400e-001 -1.6109340578747375e-001
      -9.7916068931757860e-002 -1.3895099685310139e-001
      -9.7212107362448355e-002 1.3795817998377207e-002
      -3.5116237567065734e-003 -3.5982088050690489e-002
      -2.3839832446379561e-001 -8.6173121558866528e-002
      -1.2616930776271087e-001 1.0653756683802483e-001
      -1.3489080948305438e-002 1.6402254627319723e-001
      1.3091291362173412e-002 9.0428080260941512e-002
      -4.7081360220300636e+000 3.4117559564881583e-001
      1.0096221607043984e-001 8.5337556623142838e-002
      2.1149108254633300e-001 -1.4416434083993002e-001
      1.0893299779322232e-001 -5.8897186400514563e-002
      3.8009756943472466e-002 -2.1509057913308413e-001
      4.5639157165161870e-001 8.5123380839255986e-003
      3.6581416909464132e-001 -2.3131928788228492e-001
      2.7652910670931674e-001 -2.7918412575188406e-001
      -1.0554588633422049e-001 -2.0945986838986799e-001
      -1.8740636431436375e-001 1.3613962840891666e-001
      9.2482382788675252e-002 6.2344866514079049e-002
      -1.3921125165161582e-002 2.7141639338550159e-002
      -2.1615549653436109e-001 2.5204766797049555e-001
      2.0218546835699541e-001 2.2724698559052015e-001
      6.5055466702078527e-002 3.0311064623778028e-001
      -2.4170680387590120e+000 3.4133243142558251e-001
      1.4783093324440977e-001 4.3665419812410822e-001
      -5.7813285167187716e-003 1.0041740738811943e-001
      4.0671914898808531e-001 -1.7259987235213484e-001
      1.1515458423058042e-001 -3.3124802796053199e-001
      4.3992945064303135e-001 8.8299357620124932e-002
      3.9154314095076109e-002 -3.2254536362792885e-001
      1.7154376565111474e-002 -4.7800674114622098e-002
      1.2770721958468553e-001 -4.9525282409992560e-001
      -4.8533465763015260e-001 -3.6506004506041419e-002
      1.6914677398023860e-002 2.8023821932124637e-001
      -1.0503784648198922e-001 -8.4207297832578215e-002
      -1.4826438926247651e-001 3.0434855006244831e-002
      2.4035422573529486e-001 8.4477529963162545e-002
      1.8161417031944319e-001 3.9335737038520030e-001
      -3.5340565485824771e-001 3.6712780161891012e-001
      2.5741868368051213e-001 4.8215682204161070e-001
      -1.1643464185303065e-001 3.2016413628362206e-001
      3.5793921366062553e-001 -1.8415550745709500e-001
      5.7274944675637665e-002 -3.8529711872083133e-001
      3.8924719696339150e-001 1.7446547253916056e-001
      -5.6189487727251151e-002 -1.5047565496112686e-001
      -6.3085366530206480e-002 4.3811537162732381e-002
      1.8497169822751108e-001 -5.3731571989372395e-001
      -4.3815001930967651e-001 -1.2685962630105080e-001
      -1.5290799488147425e-001 4.1862091806146962e-001
      -2.1475159024143747e-001 -3.9123305648558421e-001
      1.5210093301491698e-001 4.1269724909722257e-002
      5.8595547383651921e-002 -5.1715969680003640e-004
      2.3227582821129941e-001 1.9625610483449488e-001
      -4.2044436635498811e-001 -1.6419329613030657e-002
      2.4906335664560734e-002 5.8892859075081114e-002
      1.3838981628690358e-001 2.4404511925774872e-001
      1.9692796109125985e-002 -7.2995148876006777e-002
      -1.4806638473392655e-001 -3.6063680395332520e-001
      1.2813166233233900e-001 7.8270742981656941e-002
      7.7601020054329561e-002 -1.1899632822289524e-001
      1.3553977252186689e-001 -1.8338976687906958e-001
      -1.3869696789017585e-001 1.7346194492279907e-002
      -1.1624258239355532e-001 7.3024739491298910e-002
      -2.3667549024311944e-002 4.9462414026677798e-001
      -2.7702189218077593e-002 -7.2188273829381033e-002
      7.3545981967612873e-003 1.7275392423133815e-001
      2.5615446999493131e-002 -9.1731427646529376e-002
      1.1463487895437502e-001 4.5551116181425780e-002
      -1.1693044602377853e+000 -2.0709282772639911e-001
      -4.0934529580660649e-002 -1.4269100459292541e-001
      2.4972164450622891e-001 -2.1165638225959498e-003
      3.4041518892129759e-002 3.3401028482060557e-002
      -2.6281080764899001e-001 1.6211714364779287e-001
      7.0550006350081948e-002 2.1853784299605825e-001
      3.0632370607694102e-002 -1.8045374316396531e-001
      1.3781414148352400e-001 -1.7850865572465763e-001
      -3.2289764355025885e-001 8.4597354846046566e-002
      7.0625509450593843e-002 2.3778310656391749e-001
      1.1659223677432683e-001 1.0545362331275918e-001
      8.9017106683934838e-002 -2.3802460788080629e-001
      8.4087391882353285e-002 1.2567211057070080e-001
      -5.9075914798038691e-002 -3.8970482085026230e-002
      1.4094164209326390e-001 -2.6399971856634613e-001
      -1.5460946899271892e+000 8.0780588892209564e-003
      -1.1013965416760443e-002 -2.2626373518507101e-001
      7.4201621269026918e-001 -1.4052910602247254e-001
      -7.9910005094475697e-002 2.9012591081774691e-001
      -5.3382902766187534e-001 -1.3801173937926678e-001
      1.6686238976014331e-001 2.2953716434075877e-001
      1.3594906905716961e-001 -9.1642656789976198e-002
      4.9636350350104402e-001 -4.5115764717616608e-001
      -5.8054461338828267e-001 1.9714779285882063e-002
      1.7858465142042168e-001 3.1406290398324288e-001
      2.6823217157581974e-001 1.0569123439701292e-001
      2.3911662390170790e-001 -2.0332919361028653e-001
      -5.7357412408301972e-002 3.8046460980198687e-001
      8.1054220627848658e-002 1.2221139537301239e-001
      1.2409946368553809e-001 2.6935184181343969e-001
      -2.1459517988322125e+000 -2.4671277753603069e-001
      2.0885410349327765e-002 -5.4170454374520827e-001
      6.6401791804232757e-001 -8.0249101974263867e-002
      -6.9738176408556368e-002 3.4813492975848470e-001
      -4.7206896246819330e-001 1.9392396534736947e-001
      1.2738337624720775e-001 2.2377547352912411e-001
      5.1857098932872370e-001 -5.4429139871617592e-002
      5.9604940349533275e-001 -4.3128669988328838e-001
      -4.7488078794558441e-001 2.1481684670093437e-001
      2.1731625951365219e-001 5.0853187862756499e-002
      2.9391410366157361e-001 -2.3115330342415533e-002
      1.9668965636292532e-001 -1.3563251160598219e-001
      -1.0602268482434740e-001 3.1193329508514595e-001
      1.9150153911699047e-001 1.6794393426352883e-001
      2.6280533524863953e-001 1.4321218833213306e-001
      3.7273328132713233e+000 1.5713567962199232e-001
      5.1027801637974463e-002 1.1278913991051961e-001
      7.0313066916989708e-001 -6.1521203999652452e-001
      2.2892087622203727e-001 2.8314296869913330e-001
      -1.8683542387560029e-001 -3.4424426219839294e-002
      8.7859152518448808e-002 2.4071992433534486e-001
      -1.3225986999517717e-001 3.2060092056305145e-001
      3.2331311355734216e-001 -4.2305936737562128e-001
      1.0528587062625483e-001 -5.4209247645647174e-001
      -8.1980553234134362e-002 7.1372160292231798e-002
      9.8166280701900144e-002 1.5948410827114354e-001
      1.7165810158322914e-001 -4.4484106980392552e-001
      -1.4655647525054419e-001 1.3123075905979181e-001
      3.9866204983369957e-002 -2.6487169213128339e-002
      5.2722512243536057e-001 7.5776371364152204e-002
      3.9942658891869289e+000 3.7276794218043169e-001
      -1.5694795410577925e-001 2.8893808295184586e-001
      5.9544738612555648e-001 -5.1740024010502383e-001
      3.7136344247339020e-001 -4.0513922871195400e-003
      9.5950683594278274e-002 -1.2276988466322430e-001
      2.0046598182731465e-001 1.8674795643078479e-001
      1.2721510685705797e-001 1.9497589492308567e-001
      1.1003002489820873e-001 -7.9130690298031450e-002
      3.3103952733384523e-001 -3.0901538703544096e-001
      -1.7787435758476547e-001 1.8704527434458272e-004
      -1.6860832127532869e-002 1.3202554913369491e-001
      2.7258806613312914e-002 -6.9806921265167410e-001
      1.9341249339592220e-001 -1.2554601257580744e-001
      -1.7150665755395483e-001 -4.8884641054939226e-001
      5.4680222380395183e-001 4.1478662954131401e-001
      1.5577527917086729e+000 4.3025477146231261e-001
      -1.2213905906509229e-001 1.7713065411109935e-001
      4.3469954097238422e-001 -2.3323126317400772e-001
      3.0386437501923114e-001 1.5358393851465055e-001
      1.5539099638083700e-001 -1.0302558260037018e-002
      1.8439121305809394e-001 1.9230212215727926e-001
      1.9313282557905137e-001 8.9754928618151472e-002
      1.2229502510267430e-001 5.1838594295553465e-002
      1.2743817622328213e-001 3.6603372545755485e-002
      4.7255642362412434e-002 -1.8413699140038331e-001
      9.4844040970523767e-003 1.1359248229607757e-001
      8.1498592103168330e-002 -2.6723450927603953e-001
      5.7687319156961278e-002 -9.4788660624861826e-002
      -2.3817340829700143e-001 -2.8025007407876817e-001
      3.3253899537095299e-001 7.8687888133988047e-003
      -1.2870133583979371e+000 3.6145590356180324e-001
      -5.2081180066996587e-002 -1.1747840349824436e-001
      1.8866097628255068e-002 8.2192023829242983e-003
      2.4262968929808451e-001 -6.9479962612072010e-002
      2.4493057486291991e-001 1.2647445553364395e-001
      2.9006185177592109e-001 3.1195945895731578e-002
      -1.1420900465827813e-001 7.4914868929584100e-002
      2.6855206157274599e-002 -3.1473554033882120e-002
      1.0311949078900441e-001 4.5870109674715109e-002
      -1.9770377809931423e-002 -2.4298991684187152e-001
      4.6139602411106893e-002 8.9724895463046322e-002
      -1.3630355404804934e-001 -1.7268908368703201e-001
      7.4924461226587954e-002 -1.8124175949525090e-001
      -2.5617931862865956e-001 1.9668739179807040e-001
      1.6521718448846387e-001 -1.5753259294622002e-001
      -2.1988319494729134e+000 3.7387215502412746e-001
